solver_type L2R_L1LOSS_SVC_DUAL
nr_class 2
label 1 -1
nr_feature 4096
bias 10
w
-0.0186797516881577 
0.02105099994806387 
-0.0610749874179817 
0 
0.0002434060845219484 
-0.008577199729097974 
0.001079215195653361 
0.005588704420623091 
-0.02152187572921254 
0.01596645981638505 
-0.03691663974692432 
0.02986095134946831 
0 
-0.002053269284806546 
-0.05533824881924217 
0 
0.00034842441830482 
-0.01893053879527209 
-0.04825058762416848 
-0.0002789760384680295 
0.01577721411684856 
-0.05235889660357491 
0.007350390319089705 
0.008383630277202009 
-0.005838583069367594 
-0.001153954863471569 
-0.002050108402437669 
0.02573884736069868 
-0.008220529092972896 
-0.0009201471631301643 
-0.03637063781935994 
-0.001107707915905939 
0.0001346199152729091 
-0.01202154620862726 
-0.0008148571282355498 
0.001167405749168537 
-0.005245873818914347 
0.03312903353859603 
0.01891330466912329 
-0.01892105795169955 
-0.001267361523562741 
-0.02494317052425154 
-0.003710244029135736 
-0.0007100275857818668 
0.03616759573366512 
-0.02494358927614943 
0.02831293386808131 
0.008474143997800278 
-0.01041389133377525 
-0.0005977649271682738 
-0.007405195678641123 
-0.008727383977301396 
0.05885947025787745 
-0.01994394971816421 
-0.1001316392456422 
0 
-0.008498190736326596 
-0.02196122226471997 
0.02356663204340862 
-0.01994977535971539 
-0.004790735837511726 
0.008609039569972029 
-0.005913001831180332 
-3.282252670610414e-21 
0.006622730980602145 
-0.0538974348756255 
-0.03852786499420084 
0.02847354912646469 
-0.01538858270654145 
0.08938032817600695 
0.03154472897325785 
0.01617198526327395 
-0.005141203822182934 
-0.01531982044035833 
0.01067073553940791 
0 
-0.017873514844905 
0.01105854363541483 
-0.0003062677272138122 
0.007411986567747923 
0.003238772181856046 
-0.001678817469026721 
-0.03572108296798004 
-0.02532414058653968 
-0.03171786552982968 
-0.01483342139605578 
-0.005849627877207794 
-0.002515045407917243 
-0.0006951024221702282 
-0.003980649734558573 
0.001768113773612879 
-0.01996774776776198 
0.1104972616036567 
0.03119667736803197 
0.002915879042753098 
-0.02892148188829231 
0 
-0.004327925603909096 
0.0002855453794148239 
-0.001373594492778326 
-0.007580719651651249 
-0.06140320245799168 
0.02296720578662071 
-0.00565744437964682 
0.01704918310886751 
-0.0296904040485674 
-0.006939918167147213 
0 
-0.01736636338702097 
0.03049681609644082 
0.01372538714750273 
0.0003343690316732028 
0.002481887994052659 
-0.03785720270352237 
0 
0.001579838981820722 
-0.05381731031420258 
-0.01580043320753386 
-0.009274505219389648 
0.0345686491023976 
0.006918494012305512 
0.005963633664937788 
-0.003823317387843085 
-0.03580345495920245 
-0.06922146198731109 
-0.01807075028001503 
0.002936198230847941 
-0.02434104081883316 
-0.002955158325714717 
0.0140311429869284 
0.01403036716270832 
0.01310816508478851 
-0.003816815924886704 
-0.01363764656873711 
-0.0124680556035899 
0.001291946281059248 
0 
0.04634663297208221 
-0.04523208183410068 
0.00326015370608941 
0.01236182052537938 
0.004973453167281486 
-0.006796786439567685 
0.02275381456042501 
-0.004618994574724158 
0 
-0.0001705440801083144 
-0.002695155751683801 
0.01054293000603091 
-0.004433977273258068 
-0.01175308279073763 
0.004515847553874068 
-0.001440410541694288 
0 
0.02788039138226572 
0.03310563916514628 
0.04624386196813352 
-0.04436342944289969 
0.01411122725395906 
-0.05007049132833788 
0.01759720816494808 
0.02741404826568062 
0.01052585600089508 
-0.003318402129522041 
0.006913742298327449 
0.01230508394435051 
0 
-0.01408306106597486 
-0.03373799450220809 
-0.001157552812505052 
-0.01651432772093274 
0.000281736008486364 
0.008602963406722038 
-0.05452685359071366 
-0.02917655757478881 
-8.89550030739526e-21 
0 
0.009924100880872288 
-0.003496602882885041 
-0.01372533758031496 
0 
0.007199406996186835 
0.02501115397640414 
-0.01998586571043365 
-0.04468063101168691 
6.776263578034403e-21 
0.003476964056365033 
-0.03529364671179936 
-0.01047394756885448 
0 
-0.04077199977154142 
0.01046401862958053 
-0.007953564981699815 
-0.006287585407287534 
0.004143927814761895 
0.04743533946334206 
0.0122289334215407 
-0.002327567623834934 
-0.02503902208060334 
-0.03177378760550472 
0.007428213676253534 
-0.03704630309672904 
0.007277402885147927 
-0.01423428733641573 
-0.02684326121085497 
-0.04666604374750648 
-1.859502017019206e-21 
0.01956462322790372 
-0.02729998426853355 
-0.009862649844258107 
0.01471773986058094 
-0.001867953132405415 
0.002752414712280762 
-0.03253092119483193 
0.0005495206789606755 
-0.001849117467366369 
-0.06412287634027798 
0.006617266979344105 
-0.0002884909258409255 
0.01514556923833709 
-0.04644102973542108 
-0.05345286573181133 
-0.01355896303474542 
0.0287083969471483 
0.005409428814020859 
-0.009155922850012439 
0.02938233405069865 
-0.02759183756191635 
-0.01781519311128809 
-0.003355004028672979 
-0.0271144305068931 
0.03516681535358993 
-0.002347722125007922 
0.002260893926618943 
-0.001371022451597333 
-0.01553086966279023 
0.007461842919554713 
-0.01514496772335677 
-0.01383735930485407 
-0.01724709217745111 
-0.02059161167725054 
0 
0.0242092811328985 
0.004934911965612219 
-0.008594821902445784 
0.00365828243910634 
0.02520639722699373 
-0.001179887647022784 
-0.03624427221046138 
0.006142186933433345 
-0.03076652793495151 
0.01393497800518886 
-0.01796676239692965 
0.02409005889016684 
-0.00039175218436867 
0.02820856550807124 
-0.03569891289060218 
0.02330493187055216 
-0.0401311712662431 
0.02901954888686282 
-0.008959071504910796 
-0.0001184747778184852 
0.02702639358279292 
-0.003025728886150121 
-0.01814863142311706 
-0.02491704945179237 
-0.04066194566610952 
0.00895956746177632 
-0.02503447311637327 
2.594038400966295e-21 
-0.009236588674669524 
-0.03581366114543857 
0.02391699785556259 
-0.04729131135495814 
-0.01369006758047513 
-0.03761271061155853 
-0.03093108767442541 
-0.06557698423618429 
-0.0007733525883696315 
0.01791859802969042 
-0.01206510801068696 
0.001619354068805702 
0.04662186128000816 
-0.01402706654659462 
-0.01406599421230594 
-0.002126450648847857 
-0.02574462690370995 
-0.01791809424588367 
-0.007502514248014913 
-0.002380449303152893 
0.02396382032526303 
0.0005073994472004792 
-0.007671192934718983 
-0.02136725990540079 
0.06686154176535246 
0.004761874211414497 
-0.02376308248919435 
0.0103958877742506 
-0.004362112995972149 
0.007138718362855048 
-0.009167117144470422 
0.01481513898963916 
-0.04872233202761507 
-0.02728518161003043 
0.00167369103119825 
0.01441160897013669 
0.01946632502776281 
0 
-0.01290741210571152 
0.04862532803242797 
-0.001183453261631436 
8.92568631460315e-05 
-0.00811496469548219 
0.01360018424852419 
0.05631214435424961 
-0.01205736569292076 
0.08379775364371472 
0.01812823814836819 
0 
-0.03171981620046954 
0.03657268791178061 
0.02319250372394967 
-0.02712058092925254 
-0.00170723686040647 
-0.08062642344656099 
-0.014923584817314 
0.004267451523499024 
0.03537081130838508 
0.009206900227162609 
-5.269229877740144e-05 
0.03187165099809672 
-0.03396382613226533 
0.01432715664577772 
-0.02891030437278813 
-0.02117102951666812 
-0.005393885504936551 
-0.0149606444843192 
-0.007651371149855341 
-0.006760258710139892 
-0.02398755552087676 
-0.001019910254579268 
0.001004228500876454 
-0.04416670051581072 
0.001147863680093675 
-0.01206444869799589 
-0.001516970984072424 
-0.02707468543482017 
-0.05963189778802166 
-0.02002724582999622 
-0.02605261605154244 
0.01421998050188734 
0.02077673674852955 
0.02141988764432583 
-0.01750555184959672 
-0.02094142324858222 
-0.04259367823922942 
0.01530323257031817 
-0.02267596607037255 
0.02419111845140005 
-0.005916666249177512 
0.00485485987935818 
0.0116452002023429 
0.009187765675825474 
-0.09311079740716913 
0.0004214554798372445 
0.0001864656021396936 
-0.04552460043113202 
0.02494165906243177 
-0.003813538131014852 
0.01476438753604549 
0.06584820747633882 
-0.0238635408063264 
0.006294030969389231 
0.009300184003155998 
-0.004276920944331373 
-0.004391074531016215 
-0.001171032406034522 
0.02477020056636882 
0.005066185934675209 
0 
-0.004210282919135973 
-0.01024170133762374 
0.02717431853174681 
0.02015442373285087 
-0.01691219881662128 
-0.01303178405899804 
0.01140529281780504 
0.00205102771486645 
0.008225403883010358 
-0.01510840953746661 
-0.04145337159492224 
-0.01648035376054598 
0.005460897364474722 
-0.02304446693545422 
-0.02069238072707445 
-0.005868825896268013 
-0.01577218011769355 
0.007609894679325716 
0.01816463847005054 
3.388131789017201e-20 
0.001038305636100073 
-0.0002866312623196187 
-0.0131196649462602 
0.001170593855894216 
-0.05200108488797709 
0.0002236962644458787 
0.01757677335824316 
0.002267536340697942 
-0.003204623919092042 
-0.01272652589952565 
-0.002426062611597908 
-0.007310655121190984 
0.02998846684598504 
0.001431435785175225 
0.01975148598206839 
-0.01153921550665367 
-0.01890877913478399 
0.02192208514547906 
-0.000114302911603674 
0 
-0.0007154564413377037 
0.01037575407070714 
0.0001863819763481424 
-0.01583607487775241 
-0.008985718282303663 
0.008339961612980291 
-0.04372246387284831 
-0.01600755234884088 
-0.02207011200987373 
0.006883677638668264 
-0.03505979733608721 
-0.02603259942299694 
0.01155385990110427 
-0.007271480669401626 
0.002866010946691529 
-0.0888380157074411 
0.007985797915547556 
-0.0478604925063558 
0.0295716024124744 
-0.008557546141570475 
-0.005939245169916342 
-0.004314789017696904 
0.0008264758089192896 
0 
0.08007350944156776 
-0.03215782674645389 
-0.01361502100650168 
-0.01719464200237284 
-8.289458690926473e-05 
-0.003217772691902929 
0 
-0.01088736338582302 
0.006399012633828764 
-0.0007362884445402602 
-2.513987589232792e-06 
0.002592531334569714 
-0.005884576811603844 
-0.008776104297673636 
0.02941325368553694 
1.694065894508601e-21 
-0.0260421647119753 
-0.001463122997289851 
-0.0542510124967815 
-0.01536274599094814 
0.008476161968608108 
-0.01297896055888838 
0.01528472545468341 
-0.01424771389509653 
-8.470329472543003e-22 
0.0501870808651918 
-0.02066490649492755 
-0.03453513694242693 
-0.0411209280847113 
-0.0002478069998323918 
0.000419821049403641 
0.004505574705149494 
0.009772168019169591 
-0.02103569614677836 
0.001100670517380067 
-0.03196268308709248 
0.006914018013660296 
0.001571946245848604 
0.01827579548594108 
-0.05826730200518291 
-0.013119322211847 
0.0173578690740336 
0.00382652561495142 
0 
-0.05319437434343771 
0.0286879399912867 
4.883674336513075e-21 
-0.007574343041692839 
-0.02098242851683416 
0.008491939462832946 
-0.03080537479980084 
0.004869585000373205 
0.0287157113436974 
-0.01115068438150499 
-0.02936364106542295 
0.02272495677405586 
-0.007520921173629154 
0.0009644922719357354 
-0.00589996786220331 
0.003672966676147632 
0.001984373991119476 
0.013189189393399 
0.05650053473783918 
0.03310905549750499 
-0.005449365333956607 
0.00545355592910888 
-0.003094366349843545 
0.01221233198809261 
-0.0004722285084426404 
0.008086550443441198 
0.02875669620713032 
0.001914400122734073 
0.01586035194520981 
0.02729330876345301 
-0.01406412760131533 
0.03159015707525992 
-0.01357420901169561 
0.02931887457208967 
0.02744928683561634 
-0.0232635809409733 
-0.02369157979662558 
-0.01921423407028493 
-0.002541700893091182 
-0.04172696394459005 
-0.001372708776836496 
0.008378559160694186 
-0.02238311722078802 
0.0002866534837048839 
0.00991180939391257 
-0.02914116668993641 
-0.02340511683683148 
-0.01273001607314442 
0.02142280906593048 
-0.000475210377768642 
0.004320597661075801 
0.002885980057644571 
0.0003919901156169942 
-0.06293508439766703 
0.002767587121512555 
-0.0523406296673999 
-0.000791079979159976 
0.005719308348366135 
0.009960729177755505 
-0.06409902451988954 
-0.0001620595533617213 
0.006235696534610397 
0.02055019676795358 
0.008191067704274187 
0.06617662795058216 
-0.00847001388158229 
0.004359645701966266 
-0.0127339261435705 
-0.002341778998544576 
0.004434264397571277 
-0.05602444901271318 
-0.006926264956753631 
-0.01592276223291742 
-0.003445847665030957 
0.001708090319613187 
0.00317138355103991 
-0.02479170757632496 
-0.009027985208702937 
-0.01694431454321232 
-0.01075123246879368 
-0.001220303518240894 
-0.01941784717380178 
-0.01475472631261849 
0.004023778616203835 
0.02040553618313016 
-0.003492773412617346 
-0.03119798492280434 
-0.001418920909515624 
6.776263578034403e-21 
-0.0003607296803447523 
0.01841295422608222 
0.004934133704718677 
0.01564932362964178 
0.05063155667449214 
0 
0 
-0.009523029380252498 
0.0009133832913221444 
-0.01491107244633765 
-0.005483499640068997 
-0.07152031316394829 
-0.01765352964949211 
-0.02331969451370712 
-0.004557982523900365 
-0.008561931242399559 
-0.1184433840178525 
-0.03092491740351651 
-0.001003297920331055 
0.006743779265278345 
0.04344650617701032 
0.08255005300617932 
0 
0 
-0.01097552093248036 
0.009913932477979472 
-0.05221148840357803 
-0.001019908458004343 
0.002954533497235379 
0.02479251973000989 
0.007257627985879855 
-0.03654628399256159 
-0.01961380224165025 
0.04799997390708645 
0.002602739919433773 
-0.01754112430055015 
-0.003054214178729517 
-0.02901959908086664 
-0.02578919482373421 
-0.0001340160992789593 
-0.0003825463235804152 
0.02256975422074184 
-0.00866673358624467 
0.009565169236499815 
0.01392197975939192 
-0.006589945863540997 
0.002180331965951806 
-1.355252715606881e-20 
-0.00748579528291877 
0 
-0.0007197163916803136 
-0.02880464129844804 
0.04338784016542977 
-0.03843280977641243 
-0.0002199745389728454 
0.04657876756911746 
-0.009321604583400681 
-0.007008915588899834 
0.005385502215264175 
0.001340879376982858 
-0.03944294313199362 
0.0005057033651527723 
0.006223405100956654 
-0.000504282240272536 
0.0001609905928247479 
-0.01287145332201257 
-0.01569234815353628 
-0.01622359282352246 
0.01902121761439026 
-0.03342236833661991 
0.0233033692215304 
0.003317568132628296 
0 
0.01602353674792152 
0.002884876201236996 
-0.008949912157772471 
-0.02039060469910476 
0.02470194492486722 
-0.02909272067310114 
-0.01113600355336132 
0.01798105913554224 
-0.009069752513619351 
-0.005921528283874662 
-0.002638186021430835 
0.02641437198258877 
0.004102226168367388 
0.01286918543524044 
-0.05289152120344873 
-0.06202640005590618 
0.01904004481964656 
-0.0205496417529439 
-0.01583709165552546 
-0.02791048837655124 
-0.0310709304488743 
-0.0427151889875467 
-0.00489128616540779 
-0.01062224837436118 
-0.00522945401388636 
-8.470329472543003e-22 
-0.02910040347901996 
0.001135310673261945 
-0.006205603278512226 
-0.001824144667447083 
-0.01025464371471161 
-0.00170126078359331 
0.01124063874175024 
-0.04623372768377193 
-2.614837292889615e-05 
-0.004667718549293414 
0.004181208553540657 
0.002022015270638027 
-0.007731924876322758 
0.002151609431113216 
0.00667874717211501 
-0.01686960484672737 
0.03120798477807473 
0.03496619580984747 
0.02853988372164285 
0.04307615927425436 
-0.01815211818160814 
-0.01001090929894009 
0.00844470899484504 
-0.0599480871380394 
0.007511388775233528 
-5.251604272976662e-20 
0.01331372341850456 
-0.01562111605753037 
0.01273161854815671 
-0.03992777895650285 
-0.08774037244824218 
0.001259143453333535 
-0.02105877184618113 
0.001807014002589808 
-0.01455504973551693 
0.0008128588280320747 
-0.007742627764789814 
-0.001380896905316636 
-0.007620059968779109 
-0.002152638155018555 
-0.01443801065370054 
-0.02435132562788028 
-0.01061193459505026 
-0.05853813604138144 
-0.005402396828997473 
-0.02615929518075915 
0.005386034515257538 
-5.293955920339377e-23 
0.0520136936820717 
0.008994273260505175 
0.003556550652601995 
-0.0007182299905712003 
0.005700999833923489 
0.06566191629650427 
-0.0008273484883034254 
-0.003961412562855506 
-0.09405815120896231 
-0.01615156091880791 
-0.0261949957255651 
-0.05249276744915229 
0.006536211837302494 
0.02507573454381664 
-0.007945277229333591 
0.001957873148659844 
0.01147896106993388 
-0.06191670214967599 
0.05136728725180941 
-3.822687261612656e-05 
-0.0006624160613864658 
0.01861396361171906 
0.003873296615732737 
0 
-0.04089710491441075 
-0.007357988922452446 
-0.002851506777666171 
-0.0007496965492813434 
0.01097622047886078 
0.01148595831909011 
0.05217490572263464 
0.03581371166722354 
0.06025799881875533 
0.006719859153153112 
0.03067899551714031 
0.04317006366153701 
-0.009217461220419847 
-0.01078350470802391 
0 
0.01121870560898825 
-0.03341531822830368 
-0.004106334529467376 
0.001282373700570155 
0.0004853673830109241 
0.002260987762282412 
-0.01089682431279067 
-0.01855781137561612 
-0.01377629062597453 
-0.009550127331370607 
0.01690096587713818 
-0.02613624805353482 
0.0005920649441868991 
-0.009551936052324692 
-0.02430655801961522 
-0.009390017841706051 
-0.004744161430716924 
0 
-0.007206826765492933 
0.0540155744392672 
-0.00199738530157456 
0.0007415003007350828 
-0.0301623095290967 
-0.04602055223830942 
0.04209110724635262 
0.02180317758745326 
-0.01407585540160469 
0.0106174025062735 
-0.004991163226725605 
0.02839024496642963 
0.0125656902004174 
-0.009835511562766385 
-0.02408479258523663 
-0.0008296149668435595 
0.02057509982861051 
-0.0221106912217265 
0.01295939437989253 
0.01432628283302797 
0.01798240746294235 
0 
0.08355758468560051 
-0.003723633749913498 
-0.02017329809843176 
-0.0662876044899512 
-0.004557854514841482 
-0.00665562374450273 
0.009219470676733931 
-0.00818714440647721 
0.001677700442852281 
-0.03414602718112635 
-0.02199790021214645 
0.01747238092155334 
0.02334170663647366 
0.008098744659472523 
0.03532703680781586 
0.01692913635799319 
0.0002071673024263754 
-0.02622873838765594 
-0.01954476403163098 
-0.004208149742604926 
-0.004474729981058211 
-0.00457521585419103 
-0.01256300731263028 
-0.01891771105421735 
-0.01993273516762457 
-0.01622062518762457 
0.01250312440359577 
0.001457101903555742 
0 
0.003686881120404125 
0.005256380707152702 
-0.03673299450247003 
-0.04907823956545093 
-0.04743891652178462 
0.03375541243711157 
-0.02515827944449522 
-0.08494061133660324 
0.007569020005625978 
0.0005395495633903399 
-0.0004491730965673925 
-0.02351769819851512 
-0.0001713717722015272 
0.0172007148204667 
0.01343756890907082 
-0.05561378392461673 
-0.04580120986434379 
-0.009944719768692503 
0 
0.003553159330595155 
0.05535795908737962 
-0.0001906540058553219 
-0.05758671973819418 
0.009066642693487977 
-0.01002342733117773 
-0.01406273000166292 
-0.05311826389986494 
0.001803979913141163 
0.01805286770287021 
0.003383803132203021 
-0.01713569409515268 
0 
0.0002174554711530744 
0.01874304471906576 
-0.003748805828032139 
-0.01269404684020722 
-0.006983342005390443 
-0.01340335880977775 
-2.918668406909258e-06 
0.01980867557607831 
-0.0373647368229001 
0 
-0.02067449144342242 
-0.009356620630523034 
0.01844396474775689 
0.01080453304125816 
-0.007856789672204476 
-0.008909425933015603 
-0.02098093019155202 
-0.01913578381963061 
0 
0.01480668433123465 
-0.02290225606619522 
-0.001800168250872448 
-0.0003398644853436359 
0.0008819990590044917 
0.0015478862377742 
-0.002817403002133871 
-0.005176831165277605 
-0.005929728043481435 
-0.02497727430309056 
0.05424848399079252 
0 
0.02737970608691172 
0 
0.001983979229314227 
0.007578429481031096 
0.05320485166742377 
0.00265817725673032 
-0.03067856553136922 
0.02208981000853083 
-0.005410975725356198 
-0.005827759503751514 
0.004774923910373283 
0.02896810330862703 
-0.001710053155399718 
-0.0003801176354895984 
0.01623446546183824 
0.0004891206967986409 
-0.03625398677001267 
0.001237585345798969 
0.006423447798982516 
0.007161128464687867 
-0.0004723082572860253 
-0.002293598794837991 
0.03734392719492212 
-0.03629836561630293 
0.0007269516354904581 
0.01453829942893763 
0 
-0.01239665001895078 
-0.01501834126610835 
-0.02043511038112933 
-0.03007197661057363 
0.03646290681384898 
0.03229752558805192 
-0.02129493275318356 
-0.0340952520385072 
-0.005058582239793054 
-0.007207492723915442 
0.002737277027407085 
0.020612284670442 
-0.001011915529799092 
0.02697853265623542 
-0.0002071068283614683 
0.005019828781711759 
0.002413585742123972 
0 
0.001258974268030533 
-0.005800265718022162 
-0.01183425050055265 
-0.01237956537016972 
0.01633076101133159 
-0.05064345105753672 
-0.01288668648586 
0.00950505557946499 
-0.01119246078612978 
-0.002993365018457111 
-0.01618984946917384 
3.361662009415504e-21 
0.003622160392166989 
0.01454000102430753 
0.01346852483202549 
-0.006365200581727474 
-0.04097582570896252 
0.0005022768615353041 
-0.003774976631605688 
0.002154272869160633 
0.01556726461727165 
0.01820731276916154 
0.003884653517702378 
-0.0002303949929773807 
-0.03222638356841713 
-0.001626322362471134 
0.01876839076955012 
-0.0001740939915180207 
-0.0215245459926064 
-0.002096150335733883 
-0.001093647339077743 
0.02231209701831785 
0.005926180938787454 
0.005470281433857568 
-0.005806267529086154 
-0.03879171018583491 
-0.009916025049368416 
0.05901580574970422 
-0.004732563236539571 
0.006226271726274137 
-0.001990254073728227 
-0.007229479550372846 
0.0001869329252589809 
-0.001981848589829843 
-6.307623810091666e-05 
-0.03363054860689926 
0.03407756816296904 
-0.04322514935289566 
-0.01421907834470524 
-0.01241480405191672 
0.00453535694725526 
0.02547104213254951 
0 
-0.007988168704695079 
-0.05173088268432396 
-6.044750101864337e-05 
-0.002864346728358092 
0.005526948784984742 
-0.006766796136946698 
0.01992875333123064 
0.00430086724833009 
0.00150937697525862 
-0.01206570295115724 
-0.003189218420558749 
-0.00114444191566215 
-0.0007801424916913545 
-0.02287518853629815 
-0.05954314104101142 
-0.001545751986922145 
-0.003465011763450419 
0.03110136360916661 
-0.04124093490786888 
0.01058318127706875 
-0.02863505763484809 
0 
0.004240017575509829 
0.007830016714287229 
0.009578350796013964 
-0.05417696627890684 
-0.004387833748687799 
-0.02922270691658348 
0.002754737962350782 
-0.0005489302325644589 
-0.0007188326950001828 
0.0008559296805715614 
-0.007512504382659496 
-0.02275927529561553 
-0.0005807786875632506 
-0.005084770758109793 
-0.07412323638017425 
-0.07257015417249645 
-0.0363863478092428 
-0.01403708168641318 
0.01638652507443276 
-0.01938060245993063 
0.01717251516982007 
0.02865097909271299 
0.009360668458479236 
0.001339632416012498 
0.01744661625422853 
0.003066111744127043 
-0.02237793463276756 
0.01309052512876111 
-0.03242026375963179 
0.03874653443383837 
-0.01907270774562925 
-0.03413092916273473 
-0.03426841339181373 
-0.04300147025308416 
0.008532444983146599 
-0.06687911665607028 
0.003663239391229035 
-0.04502595045652853 
-0.00121102671822362 
-0.01227715729904747 
-0.01321906615016746 
0.001350837538169133 
-0.0252121968934247 
-0.03495203663552906 
0.01654013073885819 
-0.0686618952161842 
-0.01062940822419381 
0.0321472115212787 
-0.03102609003231855 
-0.006813119831252493 
1.419291031339654e-05 
-0.006770591993089575 
0.003561015612882957 
0.001077202667987778 
-0.003071964572072071 
0 
0.001552680185553106 
0.004805136357958442 
0.001247492563861438 
-0.001265872876454773 
0 
0.006688741807045601 
-0.1009652891769346 
0.03435390153394347 
0.005041843574927603 
0 
-0.008956397733494107 
-0.00114005906801134 
-0.002113662898258394 
-0.03087797463633334 
0.009040183458300134 
-0.008006495004734359 
-0.0201054933960331 
0.0006920057888018709 
-0.008473341660435512 
0.01124529101034177 
-0.007088313554180227 
-0.001243188628369433 
0.04986270866969349 
-0.04940357313934679 
-0.02875371818263051 
-0.02028450058389405 
-0.006020427620540146 
-0.0129224769840457 
-0.01574226565746041 
-0.002638474844640479 
0.002849549429652548 
-0.01270549006473057 
0.001141148566552111 
0 
-0.008996525747179176 
0.01015758029725902 
-0.01709429843176383 
0.00682373327261199 
-0.006646844520094507 
0.008246493916110296 
-0.03470175217232262 
-0.0105731106230972 
-0.01167590612482307 
-0.0008431457574464282 
3.388131789017201e-21 
0.01418720737511593 
-0.05480182458500663 
0.04885289388584962 
-0.02114279212514121 
-0.02468149743534739 
0.01522725059185213 
-0.003931716702660132 
0.01718528139147182 
-0.01441730484641274 
-0.02445516344367493 
-0.06081906453710772 
0.007034640839794511 
-0.03050872231411159 
-0.01033192331442663 
0.000791445628920897 
0 
-0.0272344591179762 
0.002907014718716586 
-0.003856922445620724 
0.05506047740827871 
0.02333299566529824 
0.000246270477967134 
-0.0001330683932423679 
0.004021141842840026 
-0.03132714177299351 
0.01313790346529667 
0.008866008977563436 
-0.03902161102096329 
0.0220191303039605 
-0.01254594111009622 
-0.02279420431834809 
0 
-0.09865204360768967 
4.123314636671704e-05 
0.03710422757446172 
0.003223769351501325 
-0.0005288220010697839 
-0.00943632942352738 
0.00097052956791166 
-0.005938726778021039 
-0.00375505680982761 
0.02810230813536485 
-0.04217542141863808 
-0.04955977267067444 
0.002779170250595675 
0.002012800731882118 
-0.001636563090641744 
0 
-0.002252963810462679 
0.001740101599254634 
-0.005974333754246828 
-0.04643413706570615 
-0.001035548982039233 
-0.01154523242225583 
-0.007607031592427881 
-0.001484996813704479 
-0.01698986951111935 
-0.004514695930813515 
-0.000600237566816466 
0.02871321458731749 
0 
-0.004082370417937619 
-0.00264909090827776 
0.02078113404993997 
0.0216716872909858 
0 
-0.01915635827951045 
-0.01698255756006175 
-0.002216537168555098 
0.003397153031217516 
0.003236705867096614 
-0.0097094725879227 
0.01283688381020497 
0.005403734706162449 
-0.03561393400531386 
0.008814970672424143 
-0.0003381820110518038 
0 
0.03075281671786822 
-0.009100289826856229 
-0.0007803187680828841 
0.003267707040377515 
0.005437675043149095 
0.03470030544075062 
0.002397207585760933 
0 
-0.0008658411946279348 
-0.05284963121596784 
-0.001600515404713094 
0.01952353725151029 
0.01604078254235214 
-0.02121774181197835 
-0.02355940315939165 
-2.681657968911299e-05 
-0.07271111917467558 
0.000713509816756123 
-0.01795810769639078 
0.00359644822564567 
-0.0007916515706554144 
0.008649075204847267 
-0.04484975908572839 
0.003415721319086328 
-0.02906405857713676 
-0.02094505601921222 
-0.003469756800311553 
0.01263872486916406 
0.03102726113543762 
-0.04035136249334434 
-0.06010263105158072 
-0.01010188615635615 
0 
0.008618322926118265 
0.027561862941456 
-0.009747632620317749 
-0.0445327343109955 
-0.01157635540838369 
0.005209743297754662 
-0.02519326562731478 
0.04085154913578865 
0.009249209243608508 
-0.00380136024198655 
-0.001602434212997655 
-0.003994555978655807 
-9.554559984418731e-05 
0.002237158831705791 
-0.002931771445828302 
-0.001568762874061872 
0.002501112420485012 
0.01921742868199917 
0.01688012182833136 
-0.01582669906176826 
-0.0003361260145902633 
-0.0154732189651725 
0.0118033769804425 
0 
-0.01656008905668047 
0.0786325594349476 
0 
0.01585771991475753 
0.00479331969698165 
-0.0211574902868367 
0 
0 
-0.002562095992717915 
-0.0004292321838984951 
-0.01640556765914013 
0.01343524313320107 
-0.004381656984855807 
0.0316610645774703 
-3.811648262644352e-21 
-0.01179095737902941 
0.01211896594643181 
0.0003583365265744983 
0.00361072230213225 
-0.04237082422921105 
0.02261014563079028 
0.001367965043873527 
0.00294423098543593 
0.009598369563698932 
-0.007257606779140916 
0.0191243231994368 
0.005795392055053001 
-0.01972407979024877 
0.01755241116847591 
0.04569440988038495 
-0.002914178806063705 
0.001894900722771124 
-0.002364870506893647 
-0.0003556888278369307 
-0.000176520999521017 
-0.01608448302253108 
0.007109586087184738 
-0.02518533186152221 
-0.04621206993146257 
0.006924578049013662 
-0.04415208745705339 
-0.0005587150246392819 
0.01553037351048917 
-0.01067957435777363 
-0.01896587931777296 
-0.0006747476464977636 
0.01879443079950927 
-0.0483097296991028 
0.000565544598583868 
-6.776263578034403e-21 
0.01878488967719563 
0.04280861910369109 
-0.05059867004856932 
0.02679451671426761 
-0.0002461432931729625 
0.005676847409944858 
0.0005097945457362336 
0.01057527333737856 
-0.01109503646986257 
-0.002959889359624967 
-0.01176331802003004 
0.01112893333488608 
-0.01614941162444351 
-0.06192778001113585 
-0.0002490390092134475 
-0.002688916906864289 
0.001163311903461524 
-3.074819920584562e-05 
0.01272077832370458 
-0.02313359284255838 
-0.01372911087875652 
-0.02884280861513849 
0.0126301582544845 
-0.01060418826225722 
-0.01010237704205969 
-0.002562770466698601 
-0.00995851429019849 
0.002985600095545124 
-0.01522280989801699 
-0.005766512725776964 
-0.002166340445394919 
-0.04329627210114032 
-0.01195555497224644 
0.02947752933038695 
2.117582368135751e-21 
0.003222820029455763 
0.03560746038150986 
-0.01364676435229008 
0.01427663887855773 
0.0363619341522848 
0.05236903144767561 
-0.03870308067099826 
-0.03963550424209838 
-0.0006228581947543556 
0.01325025547862017 
0.0003652206085669484 
-0.01518219266093308 
0.01178279224447049 
0.003767378434273438 
0.01051102741577941 
0.01568632078386361 
0.01044120257423872 
-0.001424990786081527 
-0.0113143173436745 
-0.003962793221839675 
0 
-4.235164736271502e-22 
0.0104448975103958 
0.1352768858761696 
-0.01637699664370129 
0.01507021709630876 
0.06907183258288262 
0.07485810071838406 
0.002057240940711173 
0.005683731529444918 
0 
-0.007018774532924751 
0 
0.001885568327998387 
-0.05753649019457375 
-0.01178899114026437 
0.0006716065762931963 
0.01048150733898856 
-0.03793559524295026 
-0.0005810918820059672 
0.02097959011548716 
-0.002713653991437892 
-0.00539854365312966 
-0.0006535791995429054 
-0.006400619110087912 
0.005163901847644167 
-0.008975815775115834 
-0.0582032785276882 
-0.03322317891773354 
-0.04550805550496476 
-0.001603218648840891 
0 
-0.0079170358921225 
0.00726367861613793 
0.002829173902296567 
-0.007491227327968144 
0.01334118772019049 
-0.008076023394237984 
-0.01263345416965635 
-0.01762919933591259 
0.001427561582947225 
-0.001888648946316329 
0.03611509495138693 
-0.003088190978752575 
0.0121261300888965 
0.04164025437344237 
0.008383158881730199 
-0.03319479152701378 
0.01143211742203348 
0 
0.008988725821050971 
-0.004419260010910249 
-0.009970500907727879 
-0.03523822665412114 
-0.001580064691207655 
-0.006148379232004584 
-0.004951669604539136 
0.004228262465746333 
0.02617173606119958 
-0.01918917133604239 
0.001696884855664234 
-0.009897468664215052 
0.06968889185108069 
-0.0006843970407117465 
-0.04911663877268956 
0.05021847828833026 
0.005850292161366763 
0.0008236275537189128 
0.007880109676910619 
-0.0001571638871553083 
0.02320719233431905 
-0.02092763742713421 
-0.07979100151594251 
0.03119452546783682 
-0.05360564112239241 
-0.02987805352102692 
0.02978342404086466 
-0.03157969297197342 
-0.0001450239960104228 
0 
-0.02923387050774666 
0 
0.02097223978431818 
0.01218167841932148 
-0.01525783900173673 
-0.05117812423579241 
0.01352168592724564 
-0.0060279335673059 
0.03014156783285313 
-0.01951759876544351 
0.02884363738426528 
0 
-0.001529444136958454 
0.0008600068535146633 
-0.007456299802839165 
-0.07264884664319018 
-0.002027412924085153 
0.04988588299980411 
0.001915083022141851 
-0.01356652446645366 
-0.00447839292102421 
0.005527217648133811 
0.005868476310752696 
3.176373552203626e-22 
0.01571815583687947 
-9.700028353190833e-05 
0.0159282250425537 
-0.01742440080621442 
-0.03009593218494767 
0.03884174394600719 
0 
0.001070148398024757 
0.005510248044717956 
0.001748184058005956 
0 
0 
-2.279910317920742e-05 
0.002354111177190467 
-0.1147028985646435 
0.007371751780385731 
-0.008064769337523972 
-7.908819825388511e-06 
0.01283315704367991 
-0.07036458735441274 
-0.01083418759285533 
-0.001024339825364508 
0.004630013423959937 
0.01115901563535671 
-0.007104037166833911 
-0.02144971226107101 
-0.01430336285206763 
-0.0108432329350726 
-0.002508441526457078 
0.01952273156513546 
-0.0148646434004245 
0.002012864012517929 
-0.01693250928724657 
0.0185459914064397 
7.504182517081067e-21 
0.003654342436173661 
-0.02411971153099993 
0.01593303825090879 
0.07117398127259189 
0.001175605849202584 
0.003635907252074968 
-0.02395641856658035 
0.007487816456549937 
-0.03263391867334812 
0.02474896206227609 
-0.007985814284042802 
0.01943790447142163 
-0.0324263272849603 
0 
0 
-0.003833086514425211 
-0.01734629184558361 
-0.01671708577269508 
-0.0112288263185813 
0.001449572599710052 
-0.000230974252581132 
-2.117582368135751e-22 
0.03252592682763089 
-0.01084718810280058 
0.01220037352836512 
0.07376305136355929 
-0.006042910834012489 
-7.512929849326616e-05 
-0.0006685001112282972 
-0.01950578329690711 
-0.009035535561050932 
-0.01915139813279804 
0.006721077861823104 
-0.08899521970717759 
-0.01637691533080859 
-0.02595709001453598 
0.02348789662198565 
-0.0001374868796200712 
-0.000116855539573715 
-0.04444825527188336 
-0.001051365070194794 
-5.704777847186973e-07 
-0.02705834133160747 
-0.005806388967599108 
-0.0794545526249411 
0.008742345213729462 
-0.004590718143426433 
-0.04649428796620229 
0 
0.008547167594722155 
0.03127051711172283 
0.005682340211777217 
0.01958564557586391 
-0.01422376723619593 
0.006036218437104885 
0.002840482353968508 
0.02780062680264916 
0.003310799780797244 
-0.02361804479648992 
-0.003246409439284264 
-0.02101206112052926 
0.03610045834352994 
0.01510712914161318 
0.003075522624590181 
0.02032288762526103 
-0.04359168694798372 
-0.003217197598134391 
-0.02437673579926081 
-0.006498756557666015 
-0.001845625836034283 
6.666564989593344e-05 
-0.04108931094607743 
-0.07100477585254837 
-0.02141977117790723 
0.01309073140842163 
-0.07569009473143307 
0.03035549448569537 
-0.0625416562806 
-0.06744497195916037 
0.0151517158152172 
-0.001206157282879528 
-0.02143462104163153 
-2.739236766241963e-05 
-0.01443646485390388 
-0.004597822951607284 
-0.0002046053395770312 
-0.003609187169122261 
-0.01876495229258842 
0.000432884337431018 
-0.02863414636033959 
-0.01881562873357386 
-0.01751487958694624 
9.104476788898812e-05 
-0.01226048080497493 
-0.006511844956405041 
0.02500391056646237 
-0.01157582394994647 
-0.01331128556297855 
0 
-0.006342107334913041 
-0.05218260994000766 
-0.002252941978080977 
-0.00181073571556026 
0.01093078190493179 
0.002713670153519581 
-0.006707160462258549 
-0.02791967393663711 
0.001293062215771844 
0 
0.01713961294495886 
0 
0.002430706243178569 
0.01180289464657846 
-0.004219854252993058 
0.004341787578138954 
-0.0183214676423059 
0.04997504622260122 
0.06225667476055812 
-0.08436126249901153 
-0.06618100054113045 
0.01303210893106276 
0.02135688242744973 
0.01913146968182041 
-0.009769919453592566 
-0.04929465000328475 
0.0005589139811918636 
-0.0444501407689669 
0.01373424837037076 
0.004546644815259421 
-0.0009066492962628231 
0.005547795291654343 
0.02351170528628422 
0.01097250937577408 
0.002425757005120022 
0.02174575068140508 
0.01194592861368075 
0.006850212764334494 
0.06196078857849734 
0.0245483890740892 
-0.02188082088904928 
-0.01051290161338486 
-0.01749812335760608 
-0.01158224401418625 
-0.01752015834107058 
-0.01554222698542562 
-0.009892922104655493 
0.0167892456005183 
0.0151326779983527 
0.005125909871277773 
-0.04480289083214021 
-0.005639698704585912 
-0.005486822304130659 
0.003566879754026341 
0.01572159694963769 
0.008280656876292782 
-0.001718936323359232 
-0.002851745280710334 
0 
0.002583001891065328 
-0.002998767405414714 
0.0141344756909747 
0.02224740214536791 
-0.02274707120869146 
-0.004496286355483844 
-0.007159407446792074 
-0.04965080719509055 
-0.0264153276267016 
-0.0003751139216196424 
-0.004834833328127808 
0.009504921856377278 
-0.004054322987411442 
-0.004629626939707935 
-0.00195917929655515 
0.0005321890282875484 
0.02903772720395413 
0.01110875405433062 
-0.001354225365463363 
-0.008440334551980016 
0.003001025343188283 
-0.01129772663671946 
-0.01860041796348141 
-0.01119904987365577 
-0.04139489203968103 
0.006824534551949485 
-0.01084699275304009 
-0.06412043390228885 
-0.03783231021186519 
-0.02513808659965614 
-0.02563500090988606 
-0.03648230334760579 
-0.003338615639939443 
-0.01721625649690458 
-0.02040190703614765 
0 
-0.0003991548128756127 
-5.470312371560399e-06 
0.0008766579463093437 
-0.02585620297202526 
0.007300215823997051 
-0.01431716360702105 
0.007819286092651081 
-0.01669188445260688 
-0.006294067531476757 
-0.0006045786534049634 
0.003834470927452035 
0.0235737563447362 
-0.000386242563558148 
0.004465928967578984 
0.04545928831426776 
0.002572897899064538 
0.01009608367049315 
-0.004385425089730216 
0.00554418664547596 
0 
0 
0.0389366138776223 
-0.004681253248279635 
0.008652545481352766 
0.008765917968918109 
0.006909827624957832 
-0.006468730649955164 
-0.006070680229047554 
0.03194370512289661 
-0.01124857767259427 
0.03029096138301882 
-0.02280069484286239 
0.02337085837314558 
-0.01731157808325296 
0.0005754395383413985 
-0.05889739251908894 
0.009252427100522865 
0.03777045032017126 
-0.001915829775138928 
0.008437527692240479 
-0.01034685565253916 
0.01743892399461677 
0.02352258194537083 
0.00240045723832167 
-0.0006846640120500488 
0.0297584745802351 
0 
0.01259855084434348 
0.0005308476785805613 
0.0187412414437791 
-0.02949953650867199 
0.003823086443540717 
0 
-0.02917772063919668 
-0.001456738559707504 
0 
-0.008880342946735089 
0.02959208465521264 
0.05893257391297327 
0.01912434448546769 
0.006004144208199978 
-0.004099711017824384 
-0.03747434664564004 
0.04507239773725722 
0.07796048357967533 
-0.008825381763932487 
0.02020097190843157 
0.008599961292942425 
0.03722609642855005 
-0.006472579219129107 
-0.08315762297001741 
0 
-0.001076957213493317 
-2.508000005036596e-05 
0.008393503802086184 
-0.02841094919465266 
0.05790602083379093 
-0.04119460591062424 
-0.04854510391456318 
0.007561998313208604 
-0.01451230663965286 
0.03827355900922984 
0.00378793909932899 
-0.03238613412883637 
-0.04920750271536093 
-0.01933005705586085 
0.008343415101967006 
-0.01752582256885398 
0.002015527084298248 
-0.05215106420375654 
-0.03013357402805848 
-0.01022692691376099 
0.003525600656636177 
0.01721872090989239 
-0.009106538770871463 
0.02716088092164039 
-0.0003000191972136424 
-0.01010088345309171 
-0.1081330530750698 
-0.01106691837273429 
0.02674270970401036 
0.009341508228613283 
-0.07768638356090782 
-0.0003071612444982561 
-0.004945345141749835 
-0.007616409380117888 
-0.01491610308055493 
0.02226537305488538 
0.01210369401439174 
-0.02360010642517991 
0.01543218043651671 
-0.0147906253720665 
-0.006286609531338559 
-0.02203883634157154 
0.05175670451320605 
-0.008034885394398993 
0.003745863193351667 
0.02809818333149377 
-0.04484115696846688 
-0.002495041287929697 
-0.04833559321578832 
0.002582251790844177 
-0.00633893249696603 
-0.01574720631930917 
-0.0005455675857936674 
-0.05176697154957906 
0.004172260637104219 
0 
-0.01982097005903646 
2.117582368135751e-22 
0.001816606104109348 
-0.06375085740468056 
-0.004623277416878109 
-0.03343847269175743 
0.0497078888517004 
0.002684210789739442 
-0.03478318542875072 
-0.01900846748897316 
0.02700035841249194 
-0.00142263016873901 
0.006349411366017686 
0.0006205466930609433 
0.003239144682583414 
-0.00880057869367276 
-0.008542551862821468 
-0.01529057324223532 
-0.007697741802567959 
-0.03061468782791632 
0.02068433271822504 
-0.04344699476503487 
0 
-0.03801277979755338 
0.005748190156630435 
-0.03488947683055676 
-0.03444610009739054 
-0.02208452696928142 
-0.01405297797314679 
-0.005662110821407628 
0.0181074877817169 
-0.01529496675703482 
-0.02731292290743886 
0 
0.02756854673674967 
-0.02358959751953206 
-0.02762286105233525 
-0.01289560876377006 
-0.04696677334548383 
0.007951527518802775 
0.01848404737996811 
-0.01474085996803562 
0.003411008549592038 
-0.02974737544804914 
-0.02734205096247391 
-0.02693544939093019 
1.905824131322176e-21 
-0.02462924131811374 
-0.005677412086860214 
-0.05910794462142755 
-0.02536370406031803 
-0.003400376915644289 
-0.001190293877353971 
-0.02299717841930257 
0.05043638578843423 
-0.0029550286864358 
-0.004433810969475825 
0.005241709701177088 
0.03312550500134106 
0.0527025450093281 
0.002725999671225921 
0.008871685132901631 
-0.01044910320946 
0 
0.00403707206602561 
-0.006416676900078115 
-0.0001473357610831403 
-0.004792184895769452 
-0.01026116246565115 
0.01120745609164307 
-0.0001905270797784317 
0.01313585716163383 
-0.01955470324253932 
0.003255326018167596 
-0.00929986930542964 
0.003407897957244675 
-0.005412880934665953 
0.01724738773924057 
-0.009335517446735404 
-4.622744760902622e-06 
1.122318655111948e-20 
0.008951129732392794 
-0.01700685063080894 
0.003409344938711449 
-0.04824990707068474 
-0.01409883130094806 
-0.05598237172294583 
-0.002350448606670443 
-0.03452795237519744 
0.02623206748029965 
0.01540357466218388 
-0.00875569582909631 
0.01540421703467354 
0.02440559838872557 
0.04534997558161736 
0.03298733352950157 
-0.01423931320798705 
-0.006446581402116481 
0.04890848093954472 
-0.0001043846464885681 
-0.004678688497760199 
-0.0614800741256846 
-0.0004084397169112147 
0.02304454748975229 
0.003133180138314188 
0.02867252553479448 
0.03462757687776238 
0.0003952315099111599 
0.07339736235146167 
-0.01241882994710987 
0.008600029388120094 
-0.03766055557577618 
0.007851351490511622 
-0.0236806470011086 
-0.005278660985581974 
0.03093855773943941 
-0.006633180351966545 
0.004094460972159035 
0.002131915624991916 
0.03574411587283368 
0.003974706253988517 
-0.01333558258112696 
0 
0.08718967271070578 
-0.07907500973485385 
-0.07845382939140412 
0.00479912129947111 
-0.03703326981940244 
-0.05789562959398616 
-0.002754405754183127 
-0.009734130067555009 
0.02718962821563646 
-0.05447182585828867 
0.01668724573391623 
0.003691565373959267 
-0.0002189907823521304 
0.0001747700220374502 
0.0009396684865496496 
-0.0008261460415781465 
-0.002362832922698423 
-0.03135370862426747 
-0.001051202152351976 
0.003654754097282621 
0.002376869981742833 
-0.0278063297976181 
-0.002204709623348627 
-0.007860179073156717 
-0.02372097888631262 
-0.01648277758372665 
-0.02680078407762874 
-0.01650891873112324 
-0.006711320326854666 
-0.02453212133375882 
-0.005917335754552311 
-0.01153612134927014 
0.003457592656012163 
0.009251864155589554 
0.08158229857247729 
-0.004997670202733766 
-0.01810383708463018 
-0.01750642249991881 
-0.07217966924224213 
0.1187955224594402 
-0.000330031298546692 
-0.04672908329891932 
-0.01773350756340923 
9.138997145536852e-05 
-0.00720037423002067 
0.004080049934841006 
0.001727834784635905 
-0.01066934645196552 
-0.02971413844706323 
0.003737713227822546 
-0.006802234444592592 
0 
-0.01343631020208005 
0.004222751079161098 
0.02668577869665969 
-0.00400135111906029 
-0.05788475882264957 
0.003401625299444519 
-0.00415758383546296 
-0.01595179506438115 
-0.0360739325590012 
0.02900326351306386 
0.02236865528290814 
0.0004705293363549365 
-0.01775865930314282 
0.02651407290710024 
-0.0009542023186828381 
-0.002529877681877638 
-0.0289997003383131 
-0.05586895358992567 
0.004518722144565869 
-0.01485735237442559 
-0.02715881982878107 
-0.006900903959840104 
-0.04962243586455807 
-0.0156264303678563 
0.02152901365690522 
-3.563208318104701e-05 
0.002324470173709968 
0.03866962294641119 
-0.04787333331859518 
-0.00614419492696447 
0.002205426866904812 
-0.007585613580119366 
-0.02684316294018389 
-0.02561860911543229 
0.002946643510554946 
-0.001900542869956893 
0 
-0.07344748297746842 
-0.03089443167346076 
-0.02020626544403354 
-0.02670325978509583 
-0.0007208006784105217 
0 
0.03217745140995826 
-0.01768898931742512 
0 
-0.003411339788811336 
0.03221036198429157 
0.02072787592333767 
0.0311766575848984 
-3.51985394658734e-05 
0.001228207750442635 
0.0232878739104001 
0.03377483424632353 
-0.08067188369911157 
-0.009495704533131833 
-0.009124079303113613 
-0.02785937270776129 
-0.01619326468162181 
-0.003574194838463296 
0.001835361565596555 
-0.01192219949410936 
-0.009347330611712501 
0.02660348024066774 
-0.02841835474357172 
0.009987446998593181 
-0.0002235546220532085 
0.01211722363049501 
0.003398375909796404 
-0.01676857222075137 
0.1533584581561312 
-0.01526809830654373 
0.01827061370292274 
0.0665577859868693 
-0.01640667243098538 
-0.03416642794588697 
-0.009832906307531598 
-0.02326996377410169 
0.05077823964568877 
-0.01187335186027745 
-0.03108746486968508 
-0.0155821152646162 
0.01583600644562331 
0.0217126113090356 
-0.009721632451118654 
0.01197851465472178 
-0.01501684345880721 
0.03596880769351915 
-0.006929930640495504 
-0.02814482078031815 
0.001682157270908774 
-0.002106383086386816 
-0.001838078736824197 
-0.01157006119386607 
0.026703665441231 
5.823351512373315e-22 
-0.00904779948720992 
0.001172126567312028 
-0.0382099832845649 
0.01359522818646725 
-0.02048110030235887 
0.04613956247827572 
0.007701454018198727 
-0.00170974278089946 
-0.002466533306503714 
-0.03283564530666132 
-0.007103291682056621 
-0.01953019902419044 
0.08873905800279652 
0.01354696078652506 
-0.008991018593550178 
-0.006022978342572686 
-0.03576142762408804 
-0.00157964541168551 
0.00187582265956854 
-0.0003183422349082588 
-0.007750168762787842 
-0.0006102060419606437 
-0.0375848088266412 
-0.01268874634561345 
0.006597284138589908 
-0.003162868442979335 
-0.003237377996852775 
0.0109265804439788 
-0.02895559752090293 
0.0470294955356207 
0.02177265920426585 
-0.04436050122175684 
0.01801371007906702 
0.01195368324034187 
-0.008807605818916356 
-0.03789621261068378 
-0.007235759243740929 
-0.04065315583636291 
-0.004231766216526948 
-0.02137430818302912 
-0.02301805048077119 
-0.006129773674946478 
0.002458422537114886 
-0.0079625213970279 
-0.07870097649187711 
-0.02128168546093315 
-0.007591547506589086 
0.02053958536767799 
-0.008202862891097118 
0.01015547381814578 
0.001097056607083073 
0.004468683867942645 
-4.59930999204515e-05 
-0.003444374611678183 
0.01048949365537116 
-1.83835096204107e-05 
-0.008013042537110325 
-0.005053101688115427 
-0.03340905006742913 
-0.02039746173864312 
-0.04590843270919426 
-0.04784785691790636 
-0.02312908723624559 
-0.007284400541601458 
0.01821535728684166 
-0.006803587525681957 
0.05272591114635688 
-0.01065730712479972 
0.05815110857333523 
0.01329819992077347 
0 
-0.001551628502506423 
0.02856993421663048 
-0.02739533560668914 
-0.007914066092219757 
0.007019430853173286 
0 
-3.472835083742631e-20 
0.006225466563778276 
-0.02259381374709437 
0.005206141135539298 
-0.001033697895394089 
-0.0006850220910527468 
-0.005193933148484213 
0.0005457664927533422 
1.694065894508601e-21 
0.01250563203950809 
-0.0003196085512344244 
-0.0002070235307529862 
-0.01932478933000844 
-0.0579067944053571 
0 
0 
0.0150731286294149 
-0.01749832630547839 
0.01307408434771706 
0.006954512699260632 
-0.06589675315329106 
0.01821979064773922 
0 
-0.004663964608457393 
-0.02013148041549448 
-0.01020728061443123 
-0.006196455571556303 
0.008936128760686692 
0.0003981181682831075 
-0.03503658879762504 
-0.004112226123738836 
0 
0.007574081546281706 
-0.03871616142135743 
-4.610939882695675e-05 
-0.0008256126564411044 
-0.001188829138187995 
-0.01246543174544165 
0.04388109814330933 
-0.004192212588187131 
0.001615587750792503 
0 
-0.01005595204637049 
-0.001422475757012259 
-0.0001234479993581772 
0.001946638420437886 
0.005196553937675805 
-0.004786972027936942 
0.01886844498467216 
-0.01035246267697632 
-0.02790541343338148 
0.01586190278615243 
-0.02872570849083263 
-0.0006617120891367776 
-0.02737525373228855 
-0.01750829662142724 
-0.05917231540095157 
0.008416749165896237 
-0.02972673912273812 
-4.083274210652841e-05 
-0.003175567429728821 
0.002401401869875254 
-0.001445579988816356 
0.04125287515767051 
0.01432125709753047 
0.0465812970697934 
0.01743092101268869 
0.004621401435186178 
-0.01365787280915304 
0.04476063436284464 
-0.04461101384028055 
-0.03320830035073286 
-0.00204578118859384 
0.03276185210737321 
-0.04118636699358491 
0.02923503944828307 
-0.02982588169388897 
-0.007216287923596235 
0.003291465401731681 
0.02394518065304683 
-0.03542150854776176 
0.01292968892960552 
0.01743503663436752 
-0.02457123516147287 
-4.566036981292713e-22 
-0.02517798173191073 
-0.007047576906008997 
-0.002506072262517472 
-0.003051896389385909 
-0.03704849348881092 
-0.06397692474066626 
-0.005886205371791473 
-0.01626645656108859 
0.01536941500173488 
-0.04892655735368032 
0.01484203377583431 
0.02902626086658901 
0.008481050956070721 
0.0008982058906422822 
-0.02058871580252117 
-0.01186175349950905 
0.01629172822604899 
-0.02553975401640773 
-0.0002732780016958714 
0.04262595345767577 
-0.00845513777707768 
-0.0004012398036196053 
-0.02467934560134366 
0.02288889027480784 
0.00396059523002471 
-0.005899618808562298 
-0.0400777756018622 
-0.03996703007411125 
-0.02532480021374643 
0.02323432057173109 
0.04870659236066888 
-0.001095070433816519 
-0.03502278982537282 
-0.00756040413995551 
-0.006225065886868507 
-9.1793807401389e-06 
0.0004368222930179823 
-0.02350552141434779 
-0.04803449549766737 
-0.004245426666586204 
-0.02410592126720671 
-0.02367008734125137 
-0.01153706612917552 
0.0007659118629631727 
-0.0596106617161351 
0.00907539883579252 
0.004355535384208328 
-0.008199977029403347 
0.0009575752711335841 
-0.0001016551254348464 
-0.01207211358345411 
-0.02244768128345744 
-0.002710724643895714 
0.005916435498097504 
-0.02320533017194567 
0.009954462250764667 
-0.01943979787598125 
0.01663432404064272 
-6.914120167493825e-06 
0.02157895794803784 
0.01450395640949632 
0.03127661751333743 
0.01067553878692567 
-0.000603827411400029 
-0.0004059899190902118 
0.001994211316119669 
0.0001256783158657189 
-0.07450842501189439 
-0.00201508299963456 
0.03951401842086916 
-0.01537624850342363 
-0.004824575799144392 
0 
0.02204739938705343 
0.009946256623400825 
0.008780814364891334 
-0.004927118566427868 
-0.03609553335531212 
0.02435567369336955 
-0.006417018765323737 
-0.04768525524554083 
-0.02153232825140992 
-0.026128863926276 
0.02609542366973181 
-0.00373530731294443 
0.02984363887563916 
-0.01134640002527551 
3.010937429693021e-22 
-0.001411262081083048 
-0.002808525990654346 
0 
0.01255766601717975 
-0.09166005818525783 
0.001587768848347422 
0 
0.01141016177949021 
0.04675257794815917 
-0.0003381703565911259 
-0.001182625887882652 
-0.002531339654890072 
-0.05729744366607853 
-0.0617455543007711 
0.01962278289668824 
0.008073735708740374 
-0.002884503806970135 
0.03717056649219078 
0.008460704015326411 
-0.01044388239657954 
-0.09099422993028732 
0.01483115491302391 
0.003918544317327115 
0.016890335202201 
0.001260829085270579 
-0.04389350893274709 
-0.009492442098583477 
-0.001847345664098335 
-0.01002699101602683 
-0.01116856568620716 
-0.01935218015029168 
-0.002116978712074137 
-0.01356685640215714 
0.03862525932645653 
0 
-0.006021118382389013 
0.01025852616785239 
-0.001742563268521299 
-0.004512676242196659 
-0.0422383577520527 
-0.03616331278157096 
0.02006106586072617 
-0.05027358047673584 
0.04250410691886572 
-0.04373167465172662 
0.007824822823237031 
0.01259380248424128 
0.001634079616855935 
0.0008755997901252847 
0.01225961693251386 
0.00711096793431729 
0.02312107763895731 
-0.02730255217911047 
-0.008548047524191554 
-0.006367993502068297 
0.00586789441760322 
-0.007490449255358755 
-0.02497261169800911 
0.002582200455602463 
-0.02097122207577233 
0.0231220819073837 
-0.03902845497607086 
0.005078612961234357 
-0.002857855205360402 
-0.01234535644591759 
-0.02276477024844437 
0.0002404617151865097 
-0.003420400355793121 
-0.003139019756463166 
-0.01312963424204255 
-0.02047724688161425 
-0.0106700751368959 
0.04465885951792625 
0.006559104511172331 
-0.0001425615284582626 
0.0007030655143800478 
-0.00520112051386538 
-0.005696852446391492 
-0.04287180919176595 
0 
0.003503074556787996 
-0.007645554580574875 
-0.01245035542941084 
0.05950569256765592 
0.04561572447518476 
-0.02022922797284503 
-0.003117105510660008 
0.03004047187871459 
-0.03637549829656191 
0.01817500449825195 
-0.0002411495029677873 
-0.00837149414556305 
-0.02939605874899325 
-0.02008264147831643 
0.004613367428966983 
0.0430681545562621 
-0.008654657620730108 
0.0119117041866605 
-0.008700026842067417 
-0.0115077546073194 
-0.00763505735390176 
0.01073308220290594 
-0.004297126086301059 
0.02355821740464396 
0 
0.02541802605923087 
0.01944393009257085 
-0.01382611933146544 
0.02276124766020711 
0.005477614859748133 
-0.0116156792952851 
0.007092828166208682 
-0.01254218394781189 
0.04630748525799782 
-0.06198035071360636 
0.01420484401650972 
0 
-0.05130666461135339 
-0.01391468960274365 
0.01226538388959938 
-0.02822680407662594 
0.003451079561909874 
0 
0.03333539170264124 
-0.002334104993995054 
0.05310820410824361 
-0.0004400673141901088 
0.002510012396926676 
0.004287005739480522 
-0.04331970465337066 
0 
-0.01071811094457107 
-0.01677714244734503 
0.01237946797300801 
0 
-2.752857078576476e-21 
0.0220490267862631 
0.01369379731776438 
-0.007966085367482079 
-0.01432406104167817 
2.453160776549505e-05 
-0.01836047459357851 
0.01671888942409899 
-0.008683272486609904 
-0.01438029251739297 
-0.002237685383805687 
0.0004765598412798235 
0.07625418498375364 
0.01714750178021687 
-0.007895409842523401 
0.07350652380760689 
0.04533910010118264 
0.003266203142915474 
0.0467947373396054 
0.05024268142832172 
-0.01117374162741435 
0.0161947598727042 
-0.0409242896662305 
-0.01270576886092634 
0.05633436839619252 
0.003158825937401181 
0.01453731838390081 
0.001171085207778794 
-7.446247797883066e-05 
-0.02861122726075706 
-0.007671767157327864 
-1.677089952863754e-05 
-0.004708029829309499 
-0.04367968018413594 
-0.0160432716809716 
0.00937760511515 
-0.001624434485820386 
-0.02032916391863702 
-0.01573613667379512 
-0.002794157738212042 
-0.03475020655741077 
-0.03157557810799182 
-0.02747991593571863 
-0.006235037799905573 
-0.01083548812475126 
-0.006930297579349626 
0.03777157491166134 
-0.002308144403736721 
5.421010862427522e-20 
-0.006391445737356549 
0.005890812530455893 
0.000490147660547122 
-0.008035019567254149 
0.001506670833250716 
-9.794434078695499e-06 
-0.02416263055793211 
-0.03779516845946516 
-0.01988661516951752 
0.004571465492452315 
0.02495896443594997 
-0.03401404190454434 
0.03209003782047979 
0.01265596424689703 
0.02114154491098794 
-0.08635332887047639 
-7.919445871470014e-06 
-0.0166294081292799 
0.01170458700878178 
-0.0113489649863136 
-0.0230820301884654 
-0.0005200965243638315 
0.005506192901570554 
-0.017191227271116 
-0.007522374486975646 
-0.03787351439907995 
-0.006460532420947792 
0.001330911439414011 
0 
-0.003777711880987187 
-0.08507869547318413 
-0.03613031276923765 
-0.02550603156834742 
-0.08182590539403604 
-0.009815210265203791 
0.001565229878715148 
-0.01532112587044594 
-0.06373983221120795 
-0.03231650872884766 
0.001740497476172698 
-0.003149529806158608 
-0.01395271416750494 
0.0009707439943392624 
0.002577583022184623 
0.001499333116598438 
-0.003107251054011836 
0.002183281311769096 
0.01514298788550638 
-0.003907833801078441 
-0.002845552764863697 
-0.01244134088876662 
3.218777606243495e-05 
0.0008448056180498571 
-0.05106109326810494 
-0.006492267262564652 
-0.002320773373158022 
-0.08327942379782048 
-0.009098342774502633 
-0.01669814849358808 
0.04795551605646876 
-0.0342156717695494 
-0.03158705792489502 
-0.006380895167022942 
-0.04745127514923073 
-0.005845627617730284 
-0.0002927479658276198 
-0.01145059936744217 
-0.01663371240691833 
-0.000717360491851684 
-0.02446064370142772 
0.02500268101243527 
-0.01673671849517687 
0 
-0.009474146890040462 
-0.03576675581666705 
-0.01916981683777601 
0.02631075173294466 
-0.006748568967536612 
0.01476039688878729 
-0.004336690097049779 
-0.04933663708877007 
0.002388636849958299 
0.08319974566896141 
0 
-0.005250974946402853 
-0.05978653215041319 
-0.006539144050035679 
0.03277760614456264 
0.003829024756610743 
-0.02437016086880168 
-0.001344213358882516 
-0.03993074610940023 
0.0013706504105164 
0.01683166719556598 
-0.003424725547730329 
-0.01704656635147376 
0.07566431539730668 
-0.007755724830352115 
-0.002832717872654986 
-0.04436754073018546 
-0.07815766394992954 
-0.0119604250790614 
0.00186801100636383 
-0.04859727094695313 
0.02209896393445297 
0.003119364142698224 
-0.003133154683950313 
-0.004662477895418457 
0.01895914482676112 
-0.0337014163370172 
0.002271726222901036 
-0.003646634189355837 
0.004584160660459241 
0.007532601288974746 
-0.02607326894051533 
0.01344520920469046 
0.01582003754654183 
-0.02011576798857631 
-0.05014648577900215 
-0.002818012222581759 
0.00527806315595193 
0 
-0.004024255105531614 
0.003202533468989857 
-0.02627771442257379 
-0.02441132662935207 
0 
-0.0001249509956687689 
0.01585309338845455 
0.06641084429476334 
0.03157857704867059 
-0.003203138216323335 
0.03226711783033 
-0.03931352082699463 
-0.01704399556229809 
-0.02465420605014059 
-0.007996441308568008 
0.01407194561188683 
0.002375334022290234 
-0.04012977794871073 
-0.02200361889719576 
0.03493011972005032 
0.0485010341161051 
-0.001686772292032779 
-0.009064888499655711 
-0.03190492744195484 
-0.01329988473180666 
0.03488583266022097 
0.004287308841800541 
0.007789440404987108 
0.003280458020619836 
-0.002200025384354971 
3.13039136789844e-05 
-0.01268091386251695 
-0.01767511037287525 
-0.0009752637174021107 
-0.008470171138007972 
-0.008505713095016314 
0.01136251888225553 
-0.01023589540311134 
0.007854747217741754 
-0.05616069799136319 
0 
0.0005905206960458431 
-0.04538480710309006 
-0.008282138532787269 
0.0557212603665279 
0.0005311094423583032 
-0.003890792394801211 
-0.004080654197907476 
0.0102839491800057 
-0.022042120906278 
-0.01974202847900352 
-0.00730367602470964 
-0.01324601222509352 
-0.006069522108695906 
-0.01710487642943607 
-0.001708015973170706 
0.00063841927262737 
0 
0.004920342072332826 
0.0001482161709859262 
-0.02127684274386553 
-0.009281382607468544 
0.00135798383640373 
-0.02071845580110078 
-0.003727821037376076 
-0.06917145628486461 
-0.005774085762310082 
0.0005821308127886903 
-0.002161307529513075 
-0.008048805050355642 
-0.02657953527125545 
0.00708729353588164 
-0.01409594591444095 
-0.05488149082346367 
-0.02549847059634526 
-0.02408885068339181 
0.02082248451340194 
0.002520638686814255 
0.009142395341138625 
0 
-0.01446682026195233 
-0.02161201134609383 
-0.009726109558371894 
-5.833515880975324e-05 
0.04906142782030182 
-0.02919867284047411 
-0.00651935291055804 
0.0164237245811606 
-0.02406569826792043 
-0.02043783465507897 
0 
0.005885426786718022 
-0.002637743160914872 
-0.01282850671695619 
-0.003458178862493718 
-0.001545727115651119 
-0.0007714640038623229 
0.002679902308581727 
-2.565464976955144e-06 
0.01345429347017966 
-0.004215104847659682 
-0.01093709545340294 
0.005749432716476694 
-0.01459979462861141 
0.006603831594626834 
-0.01903515886337626 
-0.01325055661117814 
-0.04147274911871268 
0.004932427387825494 
0.007127556889263069 
-0.01156136418576278 
0.001770096373775418 
0.003572744046980064 
-0.01034156000782563 
-0.03788332431816043 
0.03793852471975528 
-0.03688768486777392 
0.004578487912475599 
8.458606217140232e-05 
0.05192514089170405 
0.01344552640254279 
-0.01192682239305009 
4.235164736271502e-21 
-0.01177952412432816 
-0.05468831829884719 
0.00380621486141202 
-0.0159153083006026 
0.04440099974897828 
0.02141679829315761 
0.02470661005638425 
0.003572900333782095 
0.01092717166319578 
-0.0002635000087320804 
0.03286135803341577 
-0.006166649936102885 
0.002080703525634706 
-0.01152971317163088 
0.01112475756084612 
-0.01137706625617164 
0.007493132835613813 
0.00806153074081482 
-0.0008917578070476844 
-0.008371940706896864 
-0.01225469952786539 
-0.05455968616718739 
-0.00819251053200612 
-0.009264632971631877 
-0.0001611578126150904 
-0.03039883931036897 
0.04985688158132377 
0.02000845990097496 
0.008501259528840182 
0.006835285736417512 
0.005544127033127625 
-0.0110938387088897 
0.001714129384790351 
-0.04903734488598496 
0.0004310480906186739 
-0.007377217076907911 
-0.00607264859686008 
-0.02338550243667784 
0.02353335359359235 
0.0754343979136592 
0 
0.03382260552280471 
-0.04316667347857411 
0.004357838350984575 
-0.01751910304058483 
-0.001695471159096325 
0.03608826571544427 
-0.004838365881019741 
0.00579824650520092 
-0.003006497095217263 
0.02476305247408389 
0.0006551667460560945 
-0.03389561084897375 
-0.04481177009397606 
0.06158654833294377 
0.01965594323835806 
0.01326638421365031 
0.02468245124601178 
0.02971959135765879 
-0.04508782002721377 
0 
-0.004782493949882749 
0.006948826432875347 
0.007865164507131843 
0.0001948784748411282 
-0.01252661554847659 
0.01386933003993135 
0 
-0.0008092767102270906 
0.01137197872809651 
-0.006819762996958128 
-0.02132784471243571 
0.0008683196072522103 
-0.0004180929847302708 
-0.007636680770494936 
-0.001231157022726549 
0.01862884638272144 
-0.01049060562053324 
-0.01080700429374373 
-0.007535430764675352 
0.004922951746480051 
0.007755374059883783 
-0.02173482484099586 
-0.006060732904192357 
-0.02473382796899255 
-0.01830276369404621 
0.0209052539895443 
-0.01076218964870073 
0.03600178534543014 
-0.008555112686031235 
0.03848257031357694 
-0.003113635340799805 
-0.002953123687595074 
-0.002321167608553847 
-4.704114826771162e-05 
0.001247351977815015 
-0.04801898430711302 
-0.01048937490285792 
-0.007027605900325262 
-0.01586004526639852 
-0.004317219014783436 
-0.002959071465291614 
-0.03924657062225395 
0.02379301283502856 
-0.003747504789202791 
0.008454023294217643 
0.02250115369629603 
0.001715340726706442 
-0.09500017028926533 
-0.007914088195052855 
0.009687903763045539 
0.1367885110747796 
-0.008362679117060018 
0 
0.0008760359892435653 
-0.03194638334695887 
-0.0451140921815212 
0 
-0.01689907999108464 
0.01238593600396124 
0.03690331073547744 
0.003407162222296376 
-0.0005440241637970668 
-0.01449009681263212 
0.002802152239852362 
-1.291595613570159e-05 
0.04012935949390504 
0.003232991777927203 
0.02348178500838612 
-0.01515733540028132 
-0.02537320693450739 
0.01995641645434579 
-0.002930683340013994 
-0.015360639531919 
0.02815745147730781 
0.02799438253328092 
-0.003532167460236007 
0.01790470911506642 
-0.008609402094071598 
0 
0.01716300716195337 
-0.06818389537620875 
0.002516446509832531 
-0.02596281096179215 
-0.01768501809318483 
0.0203803383054234 
0.01555860846342466 
-0.02798394854622809 
-1.694065894508601e-21 
1.694065894508601e-21 
-0.003066780398895006 
-0.002564931257081621 
-0.005226338919947163 
-0.001853955110646387 
-4.992055296171331e-05 
0.03800764106355425 
0 
-0.02316362235943555 
0.003792792175369967 
-0.006082127499444341 
0.01627071315917671 
0 
-0.001960099375800165 
-0.003007062403711813 
-0.008851662657514813 
0.01577268750780039 
-0.04381263804793423 
0.02611568919416107 
0 
-0.004886102848168145 
0.001221073301804291 
0.001925855680202432 
-0.003370966461391586 
-0.006800582434492301 
-0.03104652311307103 
-0.00326313529279467 
0.004335399787530368 
0.08730956757086371 
0.003371231851440001 
-0.02152747401729995 
0.0002658211110841456 
-0.02705257197360417 
-0.0004508800059556958 
0.0439273944351869 
-0.01231650203673035 
-0.000377590880618738 
-8.228162214322537e-05 
-0.03717941654705702 
0.005825848355809396 
-0.02442539748171553 
-0.007527308561477895 
0.02310339921784081 
-0.009638049243268805 
-0.01336785982310632 
-0.04382698433921217 
-0.0009731761652114592 
-0.0134913127192586 
0.01000039443670866 
0 
0.002554954545772992 
0.0007055597132990477 
0.01897370810372606 
-0.000249121563019803 
-0.006095160966521077 
0.004079152701065914 
0.01165062495195426 
0.002947006171989845 
-0.01047155590897322 
0.002420097635981376 
-0.01225359253610173 
-0.01616804812734498 
-0.01568036455496954 
-0.0227081914784661 
-0.02287375276254342 
-0.05027595457115779 
0.03152752032908037 
-0.006136208755434205 
-0.01338586133961885 
0.001653903391184431 
-0.02892643583091772 
0.01020594689291216 
0.007883573307187034 
0.02403223971094385 
0.001893346653960085 
0.01385339299156384 
-0.0366764765545715 
-0.05616739056706158 
0.02630390282301319 
0.002168960635804138 
-0.04669038636637474 
0 
0.0138317894765673 
0 
0.03889542968132283 
-0.0006207565699808986 
-0.002132428160559036 
-0.01254219548250219 
0 
-9.251957187071353e-05 
-0.00313071745805047 
0.00860506577612925 
-0.001045316478832847 
0 
0.02131428978699131 
-0.005264446984703427 
0 
-0.03526751547922034 
-0.01568254944886966 
-0.03249743373314401 
0.00203710951983213 
-0.04450249799378746 
0 
-5.349109880626203e-05 
0.02730848059832451 
0.04661728608285226 
0 
-0.01230365939636061 
-0.01703209301895943 
-0.006870359219580011 
0.000426423641974661 
0.01640627465274973 
-0.01923157083361472 
0.03538304542515182 
-7.208659779280423e-05 
-0.01486666605601339 
-0.004623647130178995 
0.002933370920888354 
0.004735175735050795 
-0.0150329758850659 
-0.004306311070771894 
0 
-0.004752742618064673 
-0.004981245546470545 
-0.04320350196180228 
-0.003091236995465648 
0.008474345471831707 
0.03926838884594288 
0.04174480787895855 
-0.02060211941102618 
-0.01292877605817092 
-0.02430563045868927 
-0.001506351918292954 
-0.00179493407169345 
0 
-0.005789777432352107 
-0.001077966509786044 
-0.0001642167729859028 
-0.01364615605128442 
-0.003710592815692102 
-0.006264705680402326 
-0.006897058241699987 
0 
-0.0007168835630642667 
0.007632303093647149 
-0.003058843534101926 
-0.00384548932844706 
0.01839976281735545 
-0.01376043236196484 
-0.003531542774960813 
0.001777543701547576 
-0.007397300158653228 
0.01098815021827519 
-0.03080214303671023 
-0.007101959267714906 
0.01503000102689392 
0.02063202969543997 
-0.005015433277683136 
-0.001765333410917151 
-0.00623351495671534 
-0.002385366856823208 
-0.04089480340209348 
0.0003181077951581594 
0.05877061866508036 
0.01578465993877824 
-0.005052474670497787 
-0.0006197744697719198 
-0.003619600794554523 
-0.01914974521918944 
0.01974477966036596 
0.01224068386328736 
-0.02110939582935826 
0.03257357479466542 
0.005815333089080338 
-0.03657501855882894 
0 
0.007347191473264901 
-0.008811034009804484 
0 
0.01225406233207916 
0.002587667758511824 
-0.02813920457430987 
0.002048752378571873 
-0.001752597828558988 
-0.001289940449578216 
0.02242797223491424 
-0.003036804931862309 
0.00548440076942454 
-0.003884926076189987 
-0.007160190725383994 
-0.05053004309335692 
0.0007327421551525264 
0.009281172675083322 
0.008068236738309593 
0.02493573366808625 
0 
0.01216685232204384 
0.02596887752076662 
-0.04181380998921911 
-0.04077666964346813 
0.006681687390810547 
-0.01443192284789775 
0.007565491702169377 
-0.01655209755689686 
-0.01273428559284301 
-0.01724449070450421 
-0.02174808551684858 
0.0009697898014276937 
0.0003368417714483179 
0.02603118445761079 
0.00174627015247131 
-0.006651336986880425 
-0.02296156762788768 
0.04764914452319803 
-0.02628535129131639 
0.01756489843077913 
0.01431273637678883 
0 
-0.003553641071753913 
0.01781419819769885 
-0.009726078906928325 
-0.002008027750826172 
-0.02016829851141875 
-0.01622356469576003 
0.02242860878063877 
-0.0003554803857410719 
-0.006897206252278474 
-0.01614665783641949 
-0.01915565732123913 
-0.02872513423083536 
-0.02945541485253084 
0.07970984585157204 
0.02764094179865313 
-0.008164203457380908 
-0.008487194254448469 
-0.002312692098785379 
0.003769423902376042 
0.005313559891233265 
-0.01372854671164411 
-0.01304670491691476 
-0.001712318266584767 
0.0221556557297012 
-0.04525540777102827 
0.004477017716787594 
-0.03648843862652383 
0.01516692098206005 
-0.04133102297452677 
-0.02484971754098829 
0 
0.008830566883887196 
0.003620269963062707 
0.009073216159190779 
0.00129049450762393 
-0.04035062450139334 
0.05251175698525865 
-0.005207146383729301 
0.0008073086894465807 
-0.06734506547896817 
0.007232342543463968 
-0.003132912550739087 
0 
0.02512724985165422 
-0.0867473079509162 
0.013171176652566 
0.02276616843060782 
0.02185229616350802 
-0.003050002736532336 
0.001978982204490859 
0.03548843063244835 
-0.03134007419742665 
0.002902632443734623 
0.006144399954968724 
2.108647054217375e-05 
-0.0004986331189684785 
0.01466712510308948 
-0.00752108557074185 
0.06475133625237924 
0.05190236545098793 
0.01405843010174296 
-0.004063957818818334 
0.003375903883497747 
0.02448697488302328 
0 
-0.000899193987354137 
0.0197149246424318 
0.01962985720836031 
0.005108704755014695 
0.002267969340320729 
0.001746607315477834 
0.01958910454697907 
-0.001739413905920077 
-0.01877482337423277 
0 
-0.01695906607664713 
0.0001586463815318662 
0.01103063244482195 
-0.001147020634152887 
-0.001272532018781539 
0.001957667352193641 
-0.008058685868856951 
-0.001261762069381395 
0.06668415182848138 
-0.006319429654536939 
0 
0.005940418636732781 
0.0438743748368335 
0.002122907826846579 
0.04261605367637559 
0.01333637089619235 
-0.001006897988564286 
0 
0.004364115773804184 
-0.02904739877453006 
-0.005375512838423737 
-0.01583675888572373 
-0.00434670276630457 
0.01676347416341829 
5.78224680777266e-06 
-0.02054497057931929 
-0.02384638337850882 
-0.002887962166095616 
-0.03945791780721 
0.01638383207504902 
-0.08764137507079268 
-0.02253101172570353 
0.01900696889204973 
-0.007987553465688042 
-0.06072357103834732 
0.01398251703751352 
0.00684087743792094 
0.00222940426664561 
-0.01633532812527379 
-0.05559188552290195 
-0.0009884885257347795 
-0.0005077988662410583 
-0.007494091274069353 
0.07167105569911061 
-0.04158375477127182 
0.02087838682944295 
0.007867831194547946 
-0.01012265089659521 
-0.02567494850281317 
0.002544078895471339 
2.188916939635377e-05 
0 
0.0160442208822924 
-0.0007829556969215063 
0.001556088189803938 
-0.02094433082306166 
-0.01095260509177715 
-0.004639795324327329 
0.01491497599356087 
0.01488154372784782 
-0.05780868799234714 
0.01993585040438365 
-0.0003017876848804655 
0.03489537101999704 
-0.00428005097417599 
3.990362044899693e-05 
-0.02020662191024305 
0.002553940342354321 
0 
-0.02269181985728588 
-0.007608932042777417 
-0.01785095162998638 
-0.02799621360907941 
-0.02707690935912742 
0.003672974940786874 
0.01692632754489536 
0.000811456459786887 
-0.008332774024311007 
0.002237577131235348 
-0.0301674129114798 
-0.000624361149292848 
-0.03834877217314839 
-0.002666429199631941 
-0.001288090623894411 
-0.004552865852768804 
-0.01807539978021226 
-0.01582729396756943 
-0.002656478753921068 
0.003446204550961103 
-0.001141431732723892 
-0.04388753315615782 
-0.01021157449819905 
0.006478687736676053 
-0.001171992398751963 
-0.09492032016556975 
-0.009203294406796368 
0.002106508218240739 
-0.03098648440988134 
-0.001168147269579502 
-0.005889483305488163 
0.0110711566459451 
0.01865814694076018 
0 
-0.003791419576128084 
0.01179844078374386 
-0.01800986202094204 
0.01391339041925306 
-0.01521904485660871 
-0.03277768093429334 
-0.02199631468118569 
-0.0311245034754321 
0.01085171059429575 
-0.001422684648815198 
0.03596812409830139 
-0.02511206733115479 
-0.01475033718051203 
0.01904784107480495 
0.03775023989801907 
0.003042069700641777 
-0.01323687928840864 
-0.07966067297916916 
-0.006992330846363035 
-0.00092679432002276 
-0.004966325367764235 
-0.008410403253422483 
-0.0008093250175143334 
0.01315763870475618 
0.02371928396721888 
0.000332311557822447 
-0.004202256067882646 
0 
0.005379759568267071 
-0.001567303098339199 
0.001129300182527199 
-7.190501932653714e-05 
-0.007905975507897135 
-0.05316564405562473 
-0.01393040575859613 
-0.02642673593167726 
-0.0002655874757140291 
0 
0.04383594456145126 
-0.06613470256801038 
-0.002209792774131805 
-0.006344447368636432 
0.03817721936333706 
-0.02783066081355029 
0.03952258555116241 
0.009515429879352765 
0.03507821472900457 
0.008975879380311825 
0 
-0.0899568911660919 
-0.01346868104518538 
0.003380940144162551 
0.03094739055887583 
-0.0007540437194727224 
-0.01039541371045535 
0.03466124368913058 
0.05397234650482169 
0.01106205441093149 
-0.02548208904259388 
-0.001013819897753803 
-0.05496363546297019 
-0.006148726865850439 
0.01017088040238114 
0.03203891848591885 
-0.06503137137818854 
-0.01736180965399887 
-9.352891355989149e-05 
-0.0007172357204451179 
0 
-0.0004599714613934727 
0.02463627921313432 
-0.004912258267762695 
0.001256956496333575 
-0.00883455458920164 
-0.001348639154212903 
-0.01717238052071068 
-0.0005240220517424002 
0.001027939234011748 
0.01656559824017913 
0.005131610146125333 
-0.05190038675099411 
0.02846367625879401 
0.0304542642475418 
-0.01165280709820769 
-0.02041328558823595 
-0.01019730158787271 
-0.01262444563964644 
-0.02926171915216034 
0.01140127905241932 
-0.008192165269188079 
0.005805133266469305 
0.002584809279560043 
-0.09946923596473102 
0.004863898193945641 
-0.03431019835912687 
0 
-0.01035027444510859 
-0.01702218098631245 
-0.008134298723133577 
0.0004957357393027762 
-0.0001069846707656594 
-0.01804658654052294 
0.00135554640814793 
-0.003803345412454495 
0.00193644609474704 
-0.05501917319810359 
0.004342221029209699 
-0.01254794575208586 
0.04460606732519284 
0.007943739025949196 
0.006497234973080865 
-0.0007107149777142801 
-0.001416179680978486 
0.0072257089880763 
0.008752178542007593 
-0.00342905626137656 
0.001755834513865117 
0.02995207611728204 
-0.00791160691126928 
0.003695175733223831 
-0.004681678448380375 
0.006286142839168422 
-0.0009685494696044248 
-0.003438352802094687 
-0.07089939734593689 
-5.707959816922167e-21 
0.004392173823328529 
-0.03079940898451591 
-0.008858027097753492 
0 
-0.006694014134322942 
-0.02114774571060729 
0.02860851686170979 
-0.02209829914344155 
-0.05937720707281823 
-0.001377448195208358 
0.003101392954775203 
-0.01601895964021297 
0.0630209925544023 
-0.004992542441661161 
0.001471876384704291 
-0.01711955025962659 
0.01185625559846097 
0.004643527618431815 
0.04540532471882652 
0.0003964573827309636 
-0.03352696618934912 
-0.020026967208096 
-0.005455856767141915 
0.004251936250763517 
0.008946568709277116 
0.01340453696950113 
-0.03122187323275151 
0.001127965760879048 
-0.001300348630656847 
-4.969941293982145e-05 
-0.001432909110551451 
-0.001509135248034966 
0.02673659878016454 
0.005148384553326205 
-0.005331764157318508 
-0.06658603418127164 
0.006077182467275247 
0.03406768932330078 
-0.001701284302754712 
0.02245002492256738 
-0.01157387614085001 
-0.0704005687067312 
-0.05710516200082136 
0.008361502391413042 
0.09786692558177307 
-0.01539848394978016 
0.03240648658954533 
0.02359573018150279 
0.0003580803692259039 
-0.02156399652077992 
-0.01319393693409088 
-0.03344439290427846 
-1.01643953670516e-20 
0.08410976264182644 
0.04588559844426553 
-0.02579763388988592 
0 
0.01690644132020154 
-0.00197825444989658 
-0.00239458472740669 
-0.03492183191896481 
-0.001566891292624934 
-0.01302504727364825 
-0.02287166109477051 
0.0017163403183124 
0.01478844248505252 
-0.0263482310094761 
2.695771376221088e-05 
0.04906558789128024 
-0.01576278240656778 
-0.07327103681244462 
0.01291156472657917 
-0.003383282489539729 
-0.01845317604015707 
0.003186414136623542 
0.007740103879685677 
0.00238373421138942 
0.002164205811124691 
0 
0.02594835440106471 
0 
-0.01506017677692778 
0.002091577283948732 
-0.02550233931905612 
-0.01211196887321443 
0 
-0.01465778591696856 
0.007810683514768226 
-0.05624940723115775 
0.00739795948541699 
0 
-0.001287272461851542 
-0.01891261900952136 
-0.022090189557922 
0.06977702442568512 
-0.01378822729288988 
0 
-0.008310453597849134 
-0.004111596930565833 
0.005354855783333419 
0.002979260830505137 
-0.04477562553019597 
-0.01542408646615139 
6.370168297451926e-05 
-0.01968530745177699 
0.0351241940761502 
-0.0001215253260552657 
-0.005680854289767561 
-0.04807975485724231 
0.001463908019466497 
-0.009388495055205235 
0.03427457318667667 
-0.005823647607133543 
-0.04678751859554861 
-0.007791810105295871 
0 
0.006541985105983532 
-0.0002687112265266476 
-0.0002873430207500863 
-0.17142631564858 
0.002600972318066423 
-0.01020349171619013 
0.0233497631277642 
0.004298182425579329 
0.0260282668679939 
-0.007875756263014448 
-0.0009415934126117349 
-0.01133859181520837 
-0.002330139339244393 
0.006325305839286407 
-0.02845065092208625 
-0.004323077357537599 
0.02885571285893151 
-0.01056991321611607 
-0.08000211830499392 
-0.01189720578163402 
-0.007898077186404956 
-0.01234641805285068 
-0.07125358896150917 
-0.03363911615466775 
-0.003517869049135598 
-0.03489822275848176 
-0.02150252886297985 
0.008256978976071479 
-0.01958674174417253 
0.0126174875546462 
-0.009123845273841842 
0.05180021705420385 
0.007743642616669798 
0.03744340095127466 
0.001308809484392934 
-0.02397790448797961 
-0.02075645537556487 
0 
0.001886196638571533 
0.04734826542787692 
-0.05950801472952638 
-0.02279723367636283 
-0.002650850283783338 
-0.008506133206102452 
0.006015794147323351 
0.01687955771377353 
0 
0.01982869180023177 
0.002674755165383901 
8.470329472543003e-22 
-0.00991794619374836 
-0.08724313003559121 
-0.03288004673006544 
-0.02153049855965684 
0.01317366217070115 
-0.001148793428730957 
0.03335068767468548 
-0.01037760708277877 
-0.0243031175431188 
0.001082243756773611 
-0.02402898217374705 
-0.01550408581461964 
0.009554502367704073 
-0.02413836623697774 
0.02006974373424383 
-0.003690465661163371 
-0.0008423901623405615 
-0.009704467377938826 
-0.02900964101337695 
0.002332976391290792 
-0.005949425398380085 
0.04192918529773072 
-0.0008723338575353006 
0 
-0.007454022187611436 
-0.03230843836345929 
-0.02887988659741198 
0.02306592983470523 
-0.01140746681789551 
-0.0005431636247230329 
0.0001049771285790164 
-0.0315647914247674 
-0.02449591155451387 
0.008099572174391254 
0.008523185468682819 
0.004171083922157686 
2.117582368135751e-22 
0.0158613939463773 
-0.02500488062664622 
-0.03645226227022076 
0.01300460853479936 
-0.0220861421834079 
-0.008310859686943901 
-0.01709517248480151 
0.04203687968352848 
-0.003132831221692247 
-0.01433805126648386 
0.004810593766388096 
0.01932651424548135 
0.0232142045115621 
0.002204823050497634 
-0.002131107521431959 
-0.02638863530768923 
-0.003356298212201756 
0.008020437480293238 
0.006079304703084742 
-0.001688933067780712 
0.007029423916277237 
-0.007558695666630927 
0.03178391764311522 
-0.04458022259828614 
-0.01531997235067358 
-0.002252958975196662 
0.03031542185446569 
-0.01600733873682513 
0.01562457046919744 
-9.401192264585964e-06 
0.005064034952061388 
-0.01491932032464208 
0.03725961095483373 
0.06752787049827004 
-0.01680902195441431 
-0.005976664251302406 
-0.03994053362849521 
0.001537854607560575 
-0.0001624061836675447 
0.008636343136044219 
0 
-1.61836005281657e-05 
0.01154220397272528 
-0.005807378643629861 
0.006056487233076786 
-0.002376091219967545 
-0.001850844851015477 
0.03233144458117742 
0.0419066207917189 
0.02355272133574851 
0.001076319554353516 
-0.02218330220967303 
-0.02206564671914777 
0.05002050256057943 
0.01187335179830763 
0.01226075234348527 
-0.01311562530639218 
0.000226803235761568 
-0.0001461919955909251 
0.01343234837246947 
-0.04286035123089336 
-0.001852403861748325 
0.002031503585767495 
0.001895703337218738 
-0.003224961820130327 
3.473613032142435e-05 
0.02642831589624843 
-0.006520898748795543 
-0.0580364796438496 
-0.03206464928908201 
0.01642690463481303 
-0.01428037642658712 
0.001944288312885024 
0.003886528003149414 
0.0441752848712428 
0.0314419899597792 
0.01027857791462391 
0.01528601964893306 
-0.001717694496312057 
0.001848819534931777 
-0.01716677076208361 
0.00899286420620184 
-0.003653214358035126 
-0.08004289411291088 
0.03406712575536203 
0.01529941633459182 
2.117582368135751e-22 
-0.0185296378897542 
0.004129924904906269 
-7.697820197790861e-05 
0.01446104132012702 
0.02046567491293219 
-0.008109313254443497 
0.02455398240341266 
7.681376014145179e-05 
0.02010301407112553 
-0.009508272810520132 
0 
0.0003676862090239851 
-0.01335938220390864 
-0.04653074015161968 
-0.01737268843160122 
0.04236229685110021 
0.0009972970009814259 
-0.04524523911065523 
0.02468212080476787 
-0.02166102009639844 
-0.009397074780845987 
0.006827794044465756 
-5.082197683525802e-21 
-0.04024234794142874 
-0.03013969939304092 
-0.01186784620794549 
0.0004155420106169715 
0.008163716313015892 
-0.01333371808302572 
0.04804315851300216 
0.01915250320878233 
0.1119095323113273 
0.001032246125784604 
0.0004460273865720261 
-0.0258915135489706 
-6.172752603115714e-20 
-0.01528003931388328 
0.01483341427687812 
0.01415486633912139 
-0.01657214690372516 
-0.008419367467455719 
-0.01004031764829448 
-0.03604267178525902 
0.001012492103629309 
-0.007429849208859304 
0.01277215890924656 
0.02184333567587341 
0.01850840058103967 
0.0008066532799025215 
0.0007169436809712463 
0.001181741163296232 
0.04237965497727568 
0.001560191323205705 
0.0004202320151378992 
-0.01096098527202534 
0.003060194910072594 
-0.08524396489172459 
0.02036822902014602 
0 
-0.005739042895733685 
-0.06771107101364802 
-0.03657526798595765 
0.01717512251734404 
-0.002451847337306055 
-0.001400940910865733 
-0.01836879002189547 
0.009114818614338617 
0.04226873645810965 
-0.001969480942855415 
0.02668632437094744 
0.03625441835225015 
-0.01602681477227079 
-0.009056734252875811 
0.002129962163974359 
0.005619360883770933 
0 
-0.03965283116499031 
-0.005501105615722301 
-0.0006792991262372403 
0.0009720673995574342 
0.01261684750491255 
0.01901931610716533 
-0.009980911701299439 
0.002238414176721385 
-0.06145381445482735 
0.002075360296918321 
-0.04188434379709594 
0.006992924740791335 
0.008452255424790089 
0.02645882190644689 
0.01733567114162391 
-0.02109663308469255 
-0.01023045465847667 
0.00424123687536933 
0.001672344866601895 
0 
-0.01587214754485966 
-0.002217461682111614 
0.01389021032344653 
-0.01431816651868032 
0 
0.0001347804220766304 
0.01082340510553894 
0.0008761894824945283 
-0.03897777124572908 
-7.770429830998178e-05 
0.01611652621260246 
-0.004574696261661557 
-0.009987233948205819 
-0.005420882069487588 
-0.0002550356282055222 
0.02203472685700086 
0.01445309465827815 
0.0005394925012926464 
-0.005684811165834548 
0 
-0.004121344721080478 
0.002540767487444969 
-0.04260476418308379 
-0.09892665756483512 
-0.004439315146828542 
-0.02096000954887261 
-3.388131789017201e-21 
-0.003752644287850538 
0.00159741720888549 
0.04958149120750071 
-0.0103259750721172 
0.02309857001033108 
-0.01043682039503967 
0.01535048844718974 
0.01036937568665386 
-0.002232627594982725 
0.0034590891240139 
-0.03065836590905821 
-0.004914315591647638 
-9.296186596115946e-20 
-0.0002468821522963741 
-0.01766034464109576 
-2.503789961338044e-05 
-0.005725841989267564 
-0.04460006318125232 
-0.03104534200742862 
0.003252620971136427 
-0.01947918321202268 
0 
-0.05489342014766883 
-0.01784909891404111 
-0.01559350034535892 
-0.001775488606697375 
-0.0001286416604879498 
-0.05997432827484132 
-0.05347740666310142 
-0.009074998617978131 
-0.01403027999984798 
-0.01991477996903832 
-0.01583463768932914 
0.006996949793622168 
-0.02005599342834018 
0.04633619195172551 
-0.01167246510630788 
-0.008337995297437374 
0.008107463727771684 
-0.02820610217200413 
0.008796118051769374 
0.0167365940181366 
-0.02470675716733986 
-0.008357177667606703 
-0.001309759098605771 
-0.03360299317992621 
-4.615867069734137e-06 
0.008309805166452272 
0.009957379720586914 
0.03343614808765705 
0.09487533584456403 
-0.01131528681084435 
-8.470329472543003e-20 
0.002306759878522754 
-0.005781062286501828 
-0.04484694530228719 
0.003395952904850477 
-0.0001598706976001112 
-0.04747805231017428 
-0.0216688107015651 
-0.06679698523967958 
-0.04512865683458469 
-0.001723401329184283 
-0.03421277500361807 
-1.411759993061423e-05 
0 
0.03192767112002239 
0 
0.02035353174596785 
0.009000312013542199 
0.03570170841071668 
-0.01922998972253998 
-0.03981632685925483 
-2.762479940429396e-05 
-0.067037866594453 
-0.009608744439313021 
-0.01748850651653877 
0.01948750765487045 
0.02368335716630051 
0 
0.02153199928884875 
0.003511149106756629 
-0.0007489870957537579 
0.02448657109771227 
-0.07173692741675206 
-0.01178939009205661 
-8.205631676526035e-22 
0.0111479921972955 
0.001682604905854679 
-0.0854864765975917 
0.02081346929193927 
-0.006854963518311935 
-0.006597773434954868 
-0.009412638018025202 
-0.007221605319902668 
0.05842436990156923 
0.03234998307741442 
-0.0346195661804323 
0.02074486293120005 
1.694065894508601e-21 
0.006273501653812783 
0.06477792222630355 
-0.002666081607694468 
-0.0236967149924501 
1.058791184067875e-22 
-1.260623253530814e-21 
0.02117676729128076 
-0.08246057006484844 
-0.004024631282017832 
-0.01258750954357008 
0.006613056284747927 
0.01514358061724008 
-0.01107915010335364 
0.004743924683929287 
-0.01536185989341976 
-0.03941128674555673 
-0.008342314064737536 
-0.04473361293429261 
0.0838299513669797 
-0.03527961368733569 
0.01842667406425674 
-0.0006230073830768722 
-0.0006050079450899365 
-0.008442826908660989 
0.002680126099375783 
-0.01850693313856069 
-0.005467071553127348 
-0.07212681709540204 
-0.02784510740036546 
-0.02999151157243746 
0.002163719954232673 
0.002883237832888381 
-0.04984397543967708 
-0.01711875372738821 
-0.04711798223785742 
0.02972234607714707 
-0.06942557926163076 
-0.02969681829624208 
-0.01549842484171672 
0.006872639564172567 
-0.000212868382562339 
0.0191217799324531 
0.01443798273578926 
0.01035106950393684 
0.008869940711402832 
0.01010962229481012 
-0.01212437596592034 
-0.02613120977812382 
-0.00779861893569775 
-9.886518177906247e-05 
-0.0196268415252465 
0.02509482255741136 
-0.01144272945886735 
0.003142712918232175 
0.002861533596842683 
0.02166187115647644 
-0.03345062768263177 
0.004495724282645763 
0.003449789533190931 
0.0248310604014725 
0.002582304557955907 
-0.02697506735226923 
-0.0005607405663872334 
0.01652115744087333 
-4.937123551614259e-05 
-0.003945272357723034 
0 
-0.01116065159682515 
-0.01040892869698681 
0.0174527126131851 
-0.07685367534028469 
0.002260026962581321 
0.007475098259549745 
0.01716005318567288 
-0.04972398069866262 
0.05199902286684632 
0.04596530652874102 
0.02586236756597162 
-0.01708510152382081 
-0.001687233260599847 
-0.01115819351173697 
9.966530725371849e-06 
-0.002937006829430356 
-2.541098841762901e-21 
0.009330086119495042 
-0.02394187507703842 
-0.002111123859515528 
0.007106773567579594 
0.007032189366851429 
0.01791639993984877 
-0.03788733878612133 
-0.02539247610598076 
0.002847705829810502 
0.01149202082455773 
0.004136657027859999 
-0.04386223467739318 
-0.0782107216955442 
-0.0288253974851369 
0 
0 
0 
-0.005289285727129769 
-0.005745519843935774 
0.07545314131452106 
-6.601340137422084e-05 
-0.01375608528557921 
0.005197605721378975 
0.05322134892186696 
-0.01856604273024393 
0 
-0.01334945280246376 
-0.07683921636440628 
0.004603477762619436 
0.01187404557212425 
-0.003512057343167185 
-0.04414000170681389 
0.03165761905049832 
-0.01457781149721334 
-0.0008314945773292362 
0.009486475227500662 
-0.001143194884363579 
0.003412707744096638 
-0.004570451226178406 
0.001742225353610955 
0.05434877503423816 
0.04319014822974191 
0.0006836749578016889 
0.01238691208475688 
-0.04529637472293993 
-0.03420262412217569 
-0.009281165974749997 
0.01023207302608999 
0.008637687481561029 
-0.000730456414917245 
0.008157620013207778 
0.0213203554229738 
0.05610958209780755 
-0.01584418774435313 
-0.001160683720058218 
0.001237587917459172 
-0.03654337436077781 
0.003618142698905572 
-0.01747590184945398 
0.02491509413059221 
-0.0008920166596362029 
0.03153305726896741 
